{"learner":{"attributes":{"best_iteration":"755","best_score":"79755.48465380695","scikit_learn":"{\"_estimator_type\": \"regressor\"}"},"feature_names":[],"feature_types":[],"gradient_booster":{"model":{"gbtree_model_param":{"num_parallel_tree":"1","num_trees":"806"},"iteration_indptr":[0,1,2,3,4,5,6,7,8,9,10,11,12,13,14,15,16,17,18,19,20,21,22,23,24,25,26,27,28,29,30,31,32,33,34,35,36,37,38,39,40,41,42,43,44,45,46,47,48,49,50,51,52,53,54,55,56,57,58,59,60,61,62,63,64,65,66,67,68,69,70,71,72,73,74,75,76,77,78,79,80,81,82,83,84,85,86,87,88,89,90,91,92,93,94,95,96,97,98,99,100,101,102,103,104,105,106,107,108,109,110,111,112,113,114,115,116,117,118,119,120,121,122,123,124,125,126,127,128,129,130,131,132,133,134,135,136,137,138,139,140,141,142,143,144,145,146,147,148,149,150,151,152,153,154,155,156,157,158,159,160,161,162,163,164,165,166,167,168,169,170,171,172,173,174,175,176,177,178,179,180,181,182,183,184,185,186,187,188,189,190,191,192,193,194,195,196,197,198,199,200,201,202,203,204,205,206,207,208,209,210,211,212,213,214,215,216,217,218,219,220,221,222,223,224,225,226,227,228,229,230,231,232,233,234,235,236,237,238,239,240,241,242,243,244,245,246,247,248,249,250,251,252,253,254,255,256,257,258,259,260,261,262,263,264,265,266,267,268,269,270,271,272,273,274,275,276,277,278,279,280,281,282,283,284,285,286,287,288,289,290,291,292,293,294,295,296,297,298,299,300,301,302,303,304,305,306,307,308,309,310,311,312,313,314,315,316,317,318,319,320,321,322,323,324,325,326,327,328,329,330,331,332,333,334,335,336,337,338,339,340,341,342,343,344,345,346,347,348,349,350,351,352,353,354,355,356,357,358,359,360,361,362,363,364,365,366,367,368,369,370,371,372,373,374,375,376,377,378,379,380,381,382,383,384,385,386,387,388,389,390,391,392,393,394,395,396,397,398,399,400,401,402,403,404,405,406,407,408,409,410,411,412,413,414,415,416,417,418,419,420,421,422,423,424,425,426,427,428,429,430,431,432,433,434,435,436,437,438,439,440,441,442,443,444,445,446,447,448,449,450,451,452,453,454,455,456,457,458,459,460,461,462,463,464,465,466,467,468,469,470,471,472,473,474,475,476,477,478,479,480,481,482,483,484,485,486,487,488,489,490,491,492,493,494,495,496,497,498,499,500,501,502,503,504,505,506,507,508,509,510,511,512,513,514,515,516,517,518,519,520,521,522,523,524,525,526,527,528,529,530,531,532,533,534,535,536,537,538,539,540,541,542,543,544,545,546,547,548,549,550,551,552,553,554,555,556,557,558,559,560,561,562,563,564,565,566,567,568,569,570,571,572,573,574,575,576,577,578,579,580,581,582,583,584,585,586,587,588,589,590,591,592,593,594,595,596,597,598,599,600,601,602,603,604,605,606,607,608,609,610,611,612,613,614,615,616,617,618,619,620,621,622,623,624,625,626,627,628,629,630,631,632,633,634,635,636,637,638,639,640,641,642,643,644,645,646,647,648,649,650,651,652,653,654,655,656,657,658,659,660,661,662,663,664,665,666,667,668,669,670,671,672,673,674,675,676,677,678,679,680,681,682,683,684,685,686,687,688,689,690,691,692,693,694,695,696,697,698,699,700,701,702,703,704,705,706,707,708,709,710,711,712,713,714,715,716,717,718,719,720,721,722,723,724,725,726,727,728,729,730,731,732,733,734,735,736,737,738,739,740,741,742,743,744,745,746,747,748,749,750,751,752,753,754,755,756,757,758,759,760,761,762,763,764,765,766,767,768,769,770,771,772,773,774,775,776,777,778,779,780,781,782,783,784,785,786,787,788,789,790,791,792,793,794,795,796,797,798,799,800,801,802,803,804,805,806],"tree_info":[0,0,0,0,0,0,0,0,0,0,0,0,0,0,0,0,0,0,0,0,0,0,0,0,0,0,0,0,0,0,0,0,0,0,0,0,0,0,0,0,0,0,0,0,0,0,0,0,0,0,0,0,0,0,0,0,0,0,0,0,0,0,0,0,0,0,0,0,0,0,0,0,0,0,0,0,0,0,0,0,0,0,0,0,0,0,0,0,0,0,0,0,0,0,0,0,0,0,0,0,0,0,0,0,0,0,0,0,0,0,0,0,0,0,0,0,0,0,0,0,0,0,0,0,0,0,0,0,0,0,0,0,0,0,0,0,0,0,0,0,0,0,0,0,0,0,0,0,0,0,0,0,0,0,0,0,0,0,0,0,0,0,0,0,0,0,0,0,0,0,0,0,0,0,0,0,0,0,0,0,0,0,0,0,0,0,0,0,0,0,0,0,0,0,0,0,0,0,0,0,0,0,0,0,0,0,0,0,0,0,0,0,0,0,0,0,0,0,0,0,0,0,0,0,0,0,0,0,0,0,0,0,0,0,0,0,0,0,0,0,0,0,0,0,0,0,0,0,0,0,0,0,0,0,0,0,0,0,0,0,0,0,0,0,0,0,0,0,0,0,0,0,0,0,0,0,0,0,0,0,0,0,0,0,0,0,0,0,0,0,0,0,0,0,0,0,0,0,0,0,0,0,0,0,0,0,0,0,0,0,0,0,0,0,0,0,0,0,0,0,0,0,0,0,0,0,0,0,0,0,0,0,0,0,0,0,0,0,0,0,0,0,0,0,0,0,0,0,0,0,0,0,0,0,0,0,0,0,0,0,0,0,0,0,0,0,0,0,0,0,0,0,0,0,0,0,0,0,0,0,0,0,0,0,0,0,0,0,0,0,0,0,0,0,0,0,0,0,0,0,0,0,0,0,0,0,0,0,0,0,0,0,0,0,0,0,0,0,0,0,0,0,0,0,0,0,0,0,0,0,0,0,0,0,0,0,0,0,0,0,0,0,0,0,0,0,0,0,0,0,0,0,0,0,0,0,0,0,0,0,0,0,0,0,0,0,0,0,0,0,0,0,0,0,0,0,0,0,0,0,0,0,0,0,0,0,0,0,0,0,0,0,0,0,0,0,0,0,0,0,0,0,0,0,0,0,0,0,0,0,0,0,0,0,0,0,0,0,0,0,0,0,0,0,0,0,0,0,0,0,0,0,0,0,0,0,0,0,0,0,0,0,0,0,0,0,0,0,0,0,0,0,0,0,0,0,0,0,0,0,0,0,0,0,0,0,0,0,0,0,0,0,0,0,0,0,0,0,0,0,0,0,0,0,0,0,0,0,0,0,0,0,0,0,0,0,0,0,0,0,0,0,0,0,0,0,0,0,0,0,0,0,0,0,0,0,0,0,0,0,0,0,0,0,0,0,0,0,0,0,0,0,0,0,0,0,0,0,0,0,0,0,0,0,0,0,0,0,0,0,0,0,0,0,0,0,0,0,0,0,0,0,0,0,0,0,0,0,0,0,0,0,0,0,0,0,0,0,0,0,0,0,0,0,0,0,0,0,0,0,0,0,0,0,0,0,0,0,0,0,0,0,0,0,0,0,0,0,0,0,0,0,0,0,0,0,0,0,0,0,0,0,0,0,0,0,0,0,0,0,0,0,0,0,0,0,0,0,0,0,0,0,0,0,0,0,0,0,0,0,0,0,0,0,0,0,0,0,0,0,0,0,0,0,0,0,0,0,0,0,0,0,0,0,0,0,0,0,0,0,0,0,0,0,0,0,0,0,0,0,0,0,0,0,0,0,0,0,0,0,0,0,0,0,0,0],"trees":[{"base_weights":[8.68577E5,1.173421E6,7.215849E5,1.2161401E6,1.0351026E6,6.633964E5,9.803633E5,1.2736342E4,1.1617438E4,1.1228848E4,9.597805E3,8.427799E3,6.4903696E3,8.678681E3,1.0384321E4],"categories":[],"categories_nodes":[],"categories_segments":[],"categories_sizes":[],"default_left":[0,0,0,0,0,0,0,0,0,0,0,0,0,0,0],"id":0,"left_children":[1,3,5,7,9,11,13,-1,-1,-1,-1,-1,-1,-1,-1],"loss_changes":[2.4937063E14,9.46584E12,5.6118043E13,2.8392418E12,1.7984504E12,7.3890886E12,3.606162E12,0E0,0E0,0E0,0E0,0E0,0E0,0E0,0E0],"parents":[2147483647,0,0,1,1,2,2,3,3,4,4,5,5,6,6],"right_children":[2,4,6,8,10,12,14,-1,-1,-1,-1,-1,-1,-1,-1],"split_conditions":[8E0,6E0,2.1E1,1.1E1,1.1E1,9E0,2.2E1,1.2736342E4,1.1617438E4,1.1228848E4,9.597805E3,8.427799E3,6.4903696E3,8.678681E3,1.0384321E4],"split_indices":[3,3,3,1,1,3,3,0,0,0,0,0,0,0,0],"split_type":[0,0,0,0,0,0,0,0,0,0,0,0,0,0,0],"sum_hessian":[5.583E3,1.814E3,3.769E3,1.38E3,4.34E2,3.08E3,6.89E2,6.6E2,7.2E2,1.94E2,2.4E2,2.24E2,2.856E3,2.4E2,4.49E2],"tree_param":{"num_deleted":"0","num_feature":"5","num_nodes":"15","size_leaf_vector":"1"}},{"base_weights":[8.599054E5,1.1617116E6,7.14378E5,1.2039964E6,1.02479944E6,6.5676725E5,9.7058725E5,1.2609171E4,1.1501425E4,1.1117135E4,9.502225E3,7.09346E3,6.087869E3,8.592254E3,1.0280709E4],"categories":[],"categories_nodes":[],"categories_segments":[],"categories_sizes":[],"default_left":[0,0,0,0,0,0,0,0,0,0,0,0,0,0,0],"id":1,"left_children":[1,3,5,7,9,11,13,-1,-1,-1,-1,-1,-1,-1,-1],"loss_changes":[2.4442552E14,9.273908E12,5.5009136E13,2.7830046E12,1.7632183E12,7.3409044E12,3.5336172E12,0E0,0E0,0E0,0E0,0E0,0E0,0E0,0E0],"parents":[2147483647,0,0,1,1,2,2,3,3,4,4,5,5,6,6],"right_children":[2,4,6,8,10,12,14,-1,-1,-1,-1,-1,-1,-1,-1],"split_conditions":[8E0,6E0,2.1E1,1.1E1,1.1E1,1.1E1,2.2E1,1.2609171E4,1.1501425E4,1.1117135E4,9.502225E3,7.09346E3,6.087869E3,8.592254E3,1.0280709E4],"split_indices":[3,3,3,1,1,1,3,0,0,0,0,0,0,0,0],"split_type":[0,0,0,0,0,0,0,0,0,0,0,0,0,0,0],"sum_hessian":[5.583E3,1.814E3,3.769E3,1.38E3,4.34E2,3.08E3,6.89E2,6.6E2,7.2E2,1.94E2,2.4E2,1.463E3,1.617E3,2.4E2,4.49E2],"tree_param":{"num_deleted":"0","num_feature":"5","num_nodes":"15","size_leaf_vector":"1"}},{"base_weights":[8.513201E5,1.1501192E6,7.0724275E5,1.1919739E6,1.0145989E6,6.502039E5,9.609088E5,1.248327E4,1.1386569E4,1.1006533E4,9.407598E3,8.278996E3,6.35982E3,8.506688E3,1.0178131E4],"categories":[],"categories_nodes":[],"categories_segments":[],"categories_sizes":[],"default_left":[0,0,0,0,0,0,0,0,0,0,0,0,0,0,0],"id":2,"left_children":[1,3,5,7,9,11,13,-1,-1,-1,-1,-1,-1,-1,-1],"loss_changes":[2.3957891E14,9.085735E12,5.3922778E13,2.727841E12,1.7286237E12,7.2595685E12,3.462616E12,0E0,0E0,0E0,0E0,0E0,0E0,0E0,0E0],"parents":[2147483647,0,0,1,1,2,2,3,3,4,4,5,5,6,6],"right_children":[2,4,6,8,10,12,14,-1,-1,-1,-1,-1,-1,-1,-1],"split_conditions":[8E0,6E0,2.1E1,1.1E1,1.1E1,9E0,2.2E1,1.248327E4,1.1386569E4,1.1006533E4,9.407598E3,8.278996E3,6.35982E3,8.506688E3,1.0178131E4],"split_indices":[3,3,3,1,1,3,3,0,0,0,0,0,0,0,0],"split_type":[0,0,0,0,0,0,0,0,0,0,0,0,0,0,0],"sum_hessian":[5.583E3,1.814E3,3.769E3,1.38E3,4.34E2,3.08E3,6.89E2,6.6E2,7.2E2,1.94E2,2.4E2,2.24E2,2.856E3,2.4E2,4.49E2],"tree_param":{"num_deleted":"0","num_feature":"5","num_nodes":"15","size_leaf_vector":"1"}},{"base_weights":[8.428208E5,1.1386425E6,7.001791E5,1.1800715E6,1.0044998E6,6.4370656E5,9.5132675E5,1.2358626E4,1.1272863E4,1.0897032E4,9.313912E3,6.957761E3,5.961951E3,8.421975E3,1.0076575E4],"categories":[],"categories_nodes":[],"categories_segments":[],"categories_sizes":[],"default_left":[0,0,0,0,0,0,0,0,0,0,0,0,0,0,0],"id":3,"left_children":[1,3,5,7,9,11,13,-1,-1,-1,-1,-1,-1,-1,-1],"loss_changes":[2.3482787E14,8.90132E12,5.2857357E13,2.6736171E12,1.6947001E12,7.207358E12,3.3930242E12,0E0,0E0,0E0,0E0,0E0,0E0,0E0,0E0],"parents":[2147483647,0,0,1,1,2,2,3,3,4,4,5,5,6,6],"right_children":[2,4,6,8,10,12,14,-1,-1,-1,-1,-1,-1,-1,-1],"split_conditions":[8E0,6E0,2.1E1,1.1E1,1.1E1,1.1E1,2.2E1,1.2358626E4,1.1272863E4,1.0897032E4,9.313912E3,6.957761E3,5.961951E3,8.421975E3,1.0076575E4],"split_indices":[3,3,3,1,1,1,3,0,0,0,0,0,0,0,0],"split_type":[0,0,0,0,0,0,0,0,0,0,0,0,0,0,0],"sum_hessian":[5.583E3,1.814E3,3.769E3,1.38E3,4.34E2,3.08E3,6.89E2,6.6E2,7.2E2,1.94E2,2.4E2,1.463E3,1.617E3,2.4E2,4.49E2],"tree_param":{"num_deleted":"0","num_feature":"5","num_nodes":"15","size_leaf_vector":"1"}},{"base_weights":[8.3440606E5,1.1272802E6,6.931857E5,1.1682879E6,9.9450125E5,6.372737E5,9.4184025E5,1.2235228E4,1.1160291E4,1.0788621E4,9.221158E3,8.132971E3,6.2318813E3,8.3381045E3,9.976033E3],"categories":[],"categories_nodes":[],"categories_segments":[],"categories_sizes":[],"default_left":[0,0,0,0,0,0,0,0,0,0,0,0,0,0,0],"id":4,"left_children":[1,3,5,7,9,11,13,-1,-1,-1,-1,-1,-1,-1,-1],"loss_changes":[2.301716E14,8.7206627E12,5.1813143E13,2.6208696E12,1.6615148E12,7.132196E12,3.3248416E12,0E0,0E0,0E0,0E0,0E0,0E0,0E0,0E0],"parents":[2147483647,0,0,1,1,2,2,3,3,4,4,5,5,6,6],"right_children":[2,4,6,8,10,12,14,-1,-1,-1,-1,-1,-1,-1,-1],"split_conditions":[8E0,6E0,2.1E1,1.1E1,1.1E1,9E0,2.2E1,1.2235228E4,1.1160291E4,1.0788621E4,9.221158E3,8.132971E3,6.2318813E3,8.3381045E3,9.976033E3],"split_indices":[3,3,3,1,1,3,3,0,0,0,0,0,0,0,0],"split_type":[0,0,0,0,0,0,0,0,0,0,0,0,0,0,0],"sum_hessian":[5.583E3,1.814E3,3.769E3,1.38E3,4.34E2,3.08E3,6.89E2,6.6E2,7.2E2,1.94E2,2.4E2,2.24E2,2.856E3,2.4E2,4.49E2],"tree_param":{"num_deleted":"0","num_feature":"5","num_nodes":"15","size_leaf_vector":"1"}},{"base_weights":[8.260756E5,1.1160312E6,6.862625E5,1.1566219E6,9.8460225E5,6.309056E5,9.3244844E5,1.211306E4,1.1048842E4,1.0681288E4,9.12933E3,6.8247075E3,5.8385845E3,8.255069E3,9.876494E3],"categories":[],"categories_nodes":[],"categories_segments":[],"categories_sizes":[],"default_left":[0,0,0,0,0,0,0,0,0,0,0,0,0,0,0],"id":5,"left_children":[1,3,5,7,9,11,13,-1,-1,-1,-1,-1,-1,-1,-1],"loss_changes":[2.2560738E14,8.5437637E12,5.07896E13,2.568793E12,1.6288999E12,7.076093E12,3.258001E12,0E0,0E0,0E0,0E0,0E0,0E0,0E0,0E0],"parents":[2147483647,0,0,1,1,2,2,3,3,4,4,5,5,6,6],"right_children":[2,4,6,8,10,12,14,-1,-1,-1,-1,-1,-1,-1,-1],"split_conditions":[8E0,6E0,2.1E1,1.1E1,1.1E1,1.1E1,2.2E1,1.211306E4,1.1048842E4,1.0681288E4,9.12933E3,6.8247075E3,5.8385845E3,8.255069E3,9.876494E3],"split_indices":[3,3,3,1,1,1,3,0,0,0,0,0,0,0,0],"split_type":[0,0,0,0,0,0,0,0,0,0,0,0,0,0,0],"sum_hessian":[5.583E3,1.814E3,3.769E3,1.38E3,4.34E2,3.08E3,6.89E2,6.6E2,7.2E2,1.94E2,2.4E2,1.463E3,1.617E3,2.4E2,4.49E2],"tree_param":{"num_deleted":"0","num_feature":"5","num_nodes":"15","size_leaf_vector":"1"}},{"base_weights":[8.178281E5,1.1048946E6,6.7940806E5,1.1450724E6,9.7480175E5,6.130965E5,8.8124856E5,1.1992112E4,1.0938507E4,1.0575023E4,9.038415E3,7.9896685E3,5.9688174E3,7.8909233E3,9.777949E3],"categories":[],"categories_nodes":[],"categories_segments":[],"categories_sizes":[],"default_left":[0,0,0,0,0,0,0,0,0,0,0,0,0,0,0],"id":6,"left_children":[1,3,5,7,9,11,13,-1,-1,-1,-1,-1,-1,-1,-1],"loss_changes":[2.211339E14,8.3704886E12,4.991866E13,2.5177904E12,1.5970232E12,8.08541E12,7.502905E12,0E0,0E0,0E0,0E0,0E0,0E0,0E0,0E0],"parents":[2147483647,0,0,1,1,2,2,3,3,4,4,5,5,6,6],"right_children":[2,4,6,8,10,12,14,-1,-1,-1,-1,-1,-1,-1,-1],"split_conditions":[8E0,6E0,2E1,1.1E1,1.1E1,9E0,2.2E1,1.1992112E4,1.0938507E4,1.0575023E4,9.038415E3,7.9896685E3,5.9688174E3,7.8909233E3,9.777949E3],"split_indices":[3,3,3,1,1,3,3,0,0,0,0,0,0,0,0],"split_type":[0,0,0,0,0,0,0,0,0,0,0,0,0,0,0],"sum_hessian":[5.583E3,1.814E3,3.769E3,1.38E3,4.34E2,2.84E3,9.29E2,6.6E2,7.2E2,1.94E2,2.4E2,2.24E2,2.616E3,4.8E2,4.49E2],"tree_param":{"num_deleted":"0","num_feature":"5","num_nodes":"15","size_leaf_vector":"1"}},{"base_weights":[8.096631E5,1.0938691E6,6.726224E5,1.1336382E6,9.650988E5,6.0697044E5,8.7245506E5,1.1872373E4,1.0829273E4,1.0469814E4,8.948406E3,7.9101274E3,5.9091523E3,7.8121787E3,9.680386E3],"categories":[],"categories_nodes":[],"categories_segments":[],"categories_sizes":[],"default_left":[0,0,0,0,0,0,0,0,0,0,0,0,0,0,0],"id":7,"left_children":[1,3,5,7,9,11,13,-1,-1,-1,-1,-1,-1,-1,-1],"loss_changes":[2.1674875E14,8.2008374E12,4.8930683E13,2.4679956E12,1.5656498E12,7.9273017E12,7.354125E12,0E0,0E0,0E0,0E0,0E0,0E0,0E0,0E0],"parents":[2147483647,0,0,1,1,2,2,3,3,4,4,5,5,6,6],"right_children":[2,4,6,8,10,12,14,-1,-1,-1,-1,-1,-1,-1,-1],"split_conditions":[8E0,6E0,2E1,1.1E1,1.1E1,9E0,2.2E1,1.1872373E4,1.0829273E4,1.0469814E4,8.948406E3,7.9101274E3,5.9091523E3,7.8121787E3,9.680386E3],"split_indices":[3,3,3,1,1,3,3,0,0,0,0,0,0,0,0],"split_type":[0,0,0,0,0,0,0,0,0,0,0,0,0,0,0],"sum_hessian":[5.583E3,1.814E3,3.769E3,1.38E3,4.34E2,2.84E3,9.29E2,6.6E2,7.2E2,1.94E2,2.4E2,2.24E2,2.616E3,4.8E2,4.49E2],"tree_param":{"num_deleted":"0","num_feature":"5","num_nodes":"15","size_leaf_vector":"1"}},{"base_weights":[8.015796E5,1.0829536E6,6.6590444E5,1.1223184E6,9.554925E5,6.009056E5,8.637493E5,1.175383E4,1.0721131E4,1.0365654E4,8.859293E3,7.8313774E3,5.8500835E3,7.734219E3,9.583798E3],"categories":[],"categories_nodes":[],"categories_segments":[],"categories_sizes":[],"default_left":[0,0,0,0,0,0,0,0,0,0,0,0,0,0,0],"id":8,"left_children":[1,3,5,7,9,11,13,-1,-1,-1,-1,-1,-1,-1,-1],"loss_changes":[2.1245056E14,8.0345416E12,4.7962034E13,2.419006E12,1.5349475E12,7.772146E12,7.208096E12,0E0,0E0,0E0,0E0,0E0,0E0,0E0,0E0],"parents":[2147483647,0,0,1,1,2,2,3,3,4,4,5,5,6,6],"right_children":[2,4,6,8,10,12,14,-1,-1,-1,-1,-1,-1,-1,-1],"split_conditions":[8E0,6E0,2E1,1.1E1,1.1E1,9E0,2.2E1,1.175383E4,1.0721131E4,1.0365654E4,8.859293E3,7.8313774E3,5.8500835E3,7.734219E3,9.583798E3],"split_indices":[3,3,3,1,1,3,3,0,0,0,0,0,0,0,0],"split_type":[0,0,0,0,0,0,0,0,0,0,0,0,0,0,0],"sum_hessian":[5.583E3,1.814E3,3.769E3,1.38E3,4.34E2,2.84E3,9.29E2,6.6E2,7.2E2,1.94E2,2.4E2,2.24E2,2.616E3,4.8E2,4.49E2],"tree_param":{"num_deleted":"0","num_feature":"5","num_nodes":"15","size_leaf_vector":"1"}},{"base_weights":[7.935769E5,1.0721471E6,6.592536E5,1.1111115E6,9.4598175E5,5.949014E5,8.5513044E5,1.1636469E4,1.0614068E4,1.0262529E4,8.771068E3,7.7534116E3,5.791605E3,7.657038E3,9.488173E3],"categories":[],"categories_nodes":[],"categories_segments":[],"categories_sizes":[],"default_left":[0,0,0,0,0,0,0,0,0,0,0,0,0,0,0],"id":9,"left_children":[1,3,5,7,9,11,13,-1,-1,-1,-1,-1,-1,-1,-1],"loss_changes":[2.0823773E14,7.871333E12,4.7012578E13,2.3712246E12,1.5048156E12,7.6202115E12,7.065154E12,0E0,0E0,0E0,0E0,0E0,0E0,0E0,0E0],"parents":[2147483647,0,0,1,1,2,2,3,3,4,4,5,5,6,6],"right_children":[2,4,6,8,10,12,14,-1,-1,-1,-1,-1,-1,-1,-1],"split_conditions":[8E0,6E0,2E1,1.1E1,1.1E1,9E0,2.2E1,1.1636469E4,1.0614068E4,1.0262529E4,8.771068E3,7.7534116E3,5.791605E3,7.657038E3,9.488173E3],"split_indices":[3,3,3,1,1,3,3,0,0,0,0,0,0,0,0],"split_type":[0,0,0,0,0,0,0,0,0,0,0,0,0,0,0],"sum_hessian":[5.583E3,1.814E3,3.769E3,1.38E3,4.34E2,2.84E3,9.29E2,6.6E2,7.2E2,1.94E2,2.4E2,2.24E2,2.616E3,4.8E2,4.49E2],"tree_param":{"num_deleted":"0","num_feature":"5","num_nodes":"15","size_leaf_vector":"1"}},{"base_weights":[7.85654E5,1.0614484E6,6.5266925E5,1.1000165E6,9.365657E5,5.9991956E5,8.872622E5,1.1520279E4,1.0508075E4,1.016043E4,8.683722E3,6.51004E3,5.5332646E3,8.35452E3,9.9415E3],"categories":[],"categories_nodes":[],"categories_segments":[],"categories_sizes":[],"default_left":[0,0,0,0,0,0,0,0,0,0,0,0,0,0,0],"id":10,"left_children":[1,3,5,7,9,11,13,-1,-1,-1,-1,-1,-1,-1,-1],"loss_changes":[2.0410839E14,7.711748E12,4.61203E13,2.32398E12,1.4752877E12,6.973148E12,2.9905723E12,0E0,0E0,0E0,0E0,0E0,0E0,0E0,0E0],"parents":[2147483647,0,0,1,1,2,2,3,3,4,4,5,5,6,6],"right_children":[2,4,6,8,10,12,14,-1,-1,-1,-1,-1,-1,-1,-1],"split_conditions":[8E0,6E0,2.1E1,1.1E1,1.1E1,1.1E1,2.3E1,1.1520279E4,1.0508075E4,1.016043E4,8.683722E3,6.51004E3,5.5332646E3,8.35452E3,9.9415E3],"split_indices":[3,3,3,1,1,1,3,0,0,0,0,0,0,0,0],"split_type":[0,0,0,0,0,0,0,0,0,0,0,0,0,0,0],"sum_hessian":[5.583E3,1.814E3,3.769E3,1.38E3,4.34E2,3.08E3,6.89E2,6.6E2,7.2E2,1.94E2,2.4E2,1.463E3,1.617E3,4.7E2,2.19E2],"tree_param":{"num_deleted":"0","num_feature":"5","num_nodes":"15","size_leaf_vector":"1"}},{"base_weights":[7.778102E5,1.0508564E6,6.4615056E5,1.0890322E6,9.272434E5,5.8296406E5,8.384804E5,1.1405251E4,1.040314E4,1.0059348E4,8.597244E3,7.616968E3,5.6737456E3,7.5088955E3,9.302419E3],"categories":[],"categories_nodes":[],"categories_segments":[],"categories_sizes":[],"default_left":[0,0,0,0,0,0,0,0,0,0,0,0,0,0,0],"id":11,"left_children":[1,3,5,7,9,11,13,-1,-1,-1,-1,-1,-1,-1,-1],"loss_changes":[2.0006119E14,7.555116E12,4.532667E13,2.2779433E12,1.4463973E12,7.4838463E12,6.7763175E12,0E0,0E0,0E0,0E0,0E0,0E0,0E0,0E0],"parents":[2147483647,0,0,1,1,2,2,3,3,4,4,5,5,6,6],"right_children":[2,4,6,8,10,12,14,-1,-1,-1,-1,-1,-1,-1,-1],"split_conditions":[8E0,6E0,2E1,1.1E1,1.1E1,9E0,2.2E1,1.1405251E4,1.040314E4,1.0059348E4,8.597244E3,7.616968E3,5.6737456E3,7.5088955E3,9.302419E3],"split_indices":[3,3,3,1,1,3,3,0,0,0,0,0,0,0,0],"split_type":[0,0,0,0,0,0,0,0,0,0,0,0,0,0,0],"sum_hessian":[5.583E3,1.814E3,3.769E3,1.38E3,4.34E2,2.84E3,9.29E2,6.6E2,7.2E2,1.94E2,2.4E2,2.24E2,2.616E3,4.8E2,4.49E2],"tree_param":{"num_deleted":"0","num_feature":"5","num_nodes":"15","size_leaf_vector":"1"}},{"base_weights":[7.7004475E5,1.0403701E6,6.3969706E5,1.0781578E6,9.180138E5,5.771391E5,8.301136E5,1.1291371E4,1.0299253E4,9.95927E3,8.511629E3,7.5411367E3,5.6170293E3,7.4339624E3,9.209602E3],"categories":[],"categories_nodes":[],"categories_segments":[],"categories_sizes":[],"default_left":[0,0,0,0,0,0,0,0,0,0,0,0,0,0,0],"id":12,"left_children":[1,3,5,7,9,11,13,-1,-1,-1,-1,-1,-1,-1,-1],"loss_changes":[1.9609398E14,7.4018393E12,4.442929E13,2.232846E12,1.4180439E12,7.337482E12,6.6418985E12,0E0,0E0,0E0,0E0,0E0,0E0,0E0,0E0],"parents":[2147483647,0,0,1,1,2,2,3,3,4,4,5,5,6,6],"right_children":[2,4,6,8,10,12,14,-1,-1,-1,-1,-1,-1,-1,-1],"split_conditions":[8E0,6E0,2E1,1.1E1,1.1E1,9E0,2.2E1,1.1291371E4,1.0299253E4,9.95927E3,8.511629E3,7.5411367E3,5.6170293E3,7.4339624E3,9.209602E3],"split_indices":[3,3,3,1,1,3,3,0,0,0,0,0,0,0,0],"split_type":[0,0,0,0,0,0,0,0,0,0,0,0,0,0,0],"sum_hessian":[5.583E3,1.814E3,3.769E3,1.38E3,4.34E2,2.84E3,9.29E2,6.6E2,7.2E2,1.94E2,2.4E2,2.24E2,2.616E3,4.8E2,4.49E2],"tree_param":{"num_deleted":"0","num_feature":"5","num_nodes":"15","size_leaf_vector":"1"}},{"base_weights":[7.6235675E5,1.0299885E6,6.33308E5,1.0673918E6,9.088761E5,5.713723E5,8.218304E5,1.1178629E4,1.0196403E4,9.8601875E3,8.426865E3,7.4660605E3,5.5608804E3,7.3597773E3,9.11771E3],"categories":[],"categories_nodes":[],"categories_segments":[],"categories_sizes":[],"default_left":[0,0,0,0,0,0,0,0,0,0,0,0,0,0,0],"id":13,"left_children":[1,3,5,7,9,11,13,-1,-1,-1,-1,-1,-1,-1,-1],"loss_changes":[1.9220516E14,7.251918E12,4.3549895E13,2.18842E12,1.3901937E12,7.193936E12,6.5100967E12,0E0,0E0,0E0,0E0,0E0,0E0,0E0,0E0],"parents":[2147483647,0,0,1,1,2,2,3,3,4,4,5,5,6,6],"right_children":[2,4,6,8,10,12,14,-1,-1,-1,-1,-1,-1,-1,-1],"split_conditions":[8E0,6E0,2E1,1.1E1,1.1E1,9E0,2.2E1,1.1178629E4,1.0196403E4,9.8601875E3,8.426865E3,7.4660605E3,5.5608804E3,7.3597773E3,9.11771E3],"split_indices":[3,3,3,1,1,3,3,0,0,0,0,0,0,0,0],"split_type":[0,0,0,0,0,0,0,0,0,0,0,0,0,0,0],"sum_hessian":[5.583E3,1.814E3,3.769E3,1.38E3,4.34E2,2.84E3,9.29E2,6.6E2,7.2E2,1.94E2,2.4E2,2.24E2,2.616E3,4.8E2,4.49E2],"tree_param":{"num_deleted":"0","num_feature":"5","num_nodes":"15","size_leaf_vector":"1"}},{"base_weights":[7.547456E5,1.0197105E6,6.2698275E5,1.0567334E6,8.9982944E5,5.7623375E5,8.526793E5,1.1067011E4,1.0094581E4,9.762091E3,8.342946E3,6.268329E3,5.3009443E3,8.022586E3,9.567496E3],"categories":[],"categories_nodes":[],"categories_segments":[],"categories_sizes":[],"default_left":[0,0,0,0,0,0,0,0,0,0,0,0,0,0,0],"id":14,"left_children":[1,3,5,7,9,11,13,-1,-1,-1,-1,-1,-1,-1,-1],"loss_changes":[1.8839364E14,7.1048154E12,4.2689827E13,2.1450677E12,1.3630146E12,6.8606734E12,2.8530662E12,0E0,0E0,0E0,0E0,0E0,0E0,0E0,0E0],"parents":[2147483647,0,0,1,1,2,2,3,3,4,4,5,5,6,6],"right_children":[2,4,6,8,10,12,14,-1,-1,-1,-1,-1,-1,-1,-1],"split_conditions":[8E0,6E0,2.1E1,1.1E1,1.1E1,1.1E1,2.3E1,1.1067011E4,1.0094581E4,9.762091E3,8.342946E3,6.268329E3,5.3009443E3,8.022586E3,9.567496E3],"split_indices":[3,3,3,1,1,1,3,0,0,0,0,0,0,0,0],"split_type":[0,0,0,0,0,0,0,0,0,0,0,0,0,0,0],"sum_hessian":[5.583E3,1.814E3,3.769E3,1.38E3,4.34E2,3.08E3,6.89E2,6.6E2,7.2E2,1.94E2,2.4E2,1.463E3,1.617E3,4.7E2,2.19E2],"tree_param":{"num_deleted":"0","num_feature":"5","num_nodes":"15","size_leaf_vector":"1"}},{"base_weights":[7.472104E5,1.009535E6,6.207206E5,1.0461813E6,8.9087275E5,5.599068E5,8.0582956E5,1.0956509E4,9.993774E3,9.664971E3,8.259863E3,7.3348306E3,5.4476943E3,7.21744E3,8.93917E3],"categories":[],"categories_nodes":[],"categories_segments":[],"categories_sizes":[],"default_left":[0,0,0,0,0,0,0,0,0,0,0,0,0,0,0],"id":15,"left_children":[1,3,5,7,9,11,13,-1,-1,-1,-1,-1,-1,-1,-1],"loss_changes":[1.846581E14,6.960397E12,4.198827E13,2.1026549E12,1.3362381E12,7.065087E12,6.2432047E12,0E0,0E0,0E0,0E0,0E0,0E0,0E0,0E0],"parents":[2147483647,0,0,1,1,2,2,3,3,4,4,5,5,6,6],"right_children":[2,4,6,8,10,12,14,-1,-1,-1,-1,-1,-1,-1,-1],"split_conditions":[8E0,6E0,2E1,1.1E1,1.1E1,9E0,2.2E1,1.0956509E4,9.993774E3,9.664971E3,8.259863E3,7.3348306E3,5.4476943E3,7.21744E3,8.93917E3],"split_indices":[3,3,3,1,1,3,3,0,0,0,0,0,0,0,0],"split_type":[0,0,0,0,0,0,0,0,0,0,0,0,0,0,0],"sum_hessian":[5.583E3,1.814E3,3.769E3,1.38E3,4.34E2,2.84E3,9.29E2,6.6E2,7.2E2,1.94E2,2.4E2,2.24E2,2.616E3,4.8E2,4.49E2],"tree_param":{"num_deleted":"0","num_feature":"5","num_nodes":"15","size_leaf_vector":"1"}},{"base_weights":[7.3975044E5,9.9946106E5,6.145211E5,1.0357347E6,8.8200525E5,5.5431225E5,7.977887E5,1.0847109E4,9.893976E3,9.568816E3,8.1776074E3,7.2618086E3,5.393238E3,7.1454155E3,8.849977E3],"categories":[],"categories_nodes":[],"categories_segments":[],"categories_sizes":[],"default_left":[0,0,0,0,0,0,0,0,0,0,0,0,0,0,0],"id":16,"left_children":[1,3,5,7,9,11,13,-1,-1,-1,-1,-1,-1,-1,-1],"loss_changes":[1.8099636E14,6.819603E12,4.1157195E13,2.060779E12,1.3099986E12,6.92691E12,6.119322E12,0E0,0E0,0E0,0E0,0E0,0E0,0E0,0E0],"parents":[2147483647,0,0,1,1,2,2,3,3,4,4,5,5,6,6],"right_children":[2,4,6,8,10,12,14,-1,-1,-1,-1,-1,-1,-1,-1],"split_conditions":[8E0,6E0,2E1,1.1E1,1.1E1,9E0,2.2E1,1.0847109E4,9.893976E3,9.568816E3,8.1776074E3,7.2618086E3,5.393238E3,7.1454155E3,8.849977E3],"split_indices":[3,3,3,1,1,3,3,0,0,0,0,0,0,0,0],"split_type":[0,0,0,0,0,0,0,0,0,0,0,0,0,0,0],"sum_hessian":[5.583E3,1.814E3,3.769E3,1.38E3,4.34E2,2.84E3,9.29E2,6.6E2,7.2E2,1.94E2,2.4E2,2.24E2,2.616E3,4.8E2,4.49E2],"tree_param":{"num_deleted":"0","num_feature":"5","num_nodes":"15","size_leaf_vector":"1"}},{"base_weights":[7.3236494E5,9.894877E5,6.083835E5,1.03824725E6,9.031991E5,5.4877356E5,7.89828E5,1.0906459E4,9.883061E3,9.419846E3,8.1914243E3,7.189513E3,5.339326E3,7.07411E3,8.761674E3],"categories":[],"categories_nodes":[],"categories_segments":[],"categories_sizes":[],"default_left":[0,0,0,0,0,0,0,0,0,0,0,0,0,0,0],"id":17,"left_children":[1,3,5,7,9,11,13,-1,-1,-1,-1,-1,-1,-1,-1],"loss_changes":[1.7740711E14,6.6986726E12,4.034236E13,1.9394462E12,1.3898917E12,6.791417E12,5.9978547E12,0E0,0E0,0E0,0E0,0E0,0E0,0E0,0E0],"parents":[2147483647,0,0,1,1,2,2,3,3,4,4,5,5,6,6],"right_children":[2,4,6,8,10,12,14,-1,-1,-1,-1,-1,-1,-1,-1],"split_conditions":[8E0,5E0,2E1,1.1E1,7E0,9E0,2.2E1,1.0906459E4,9.883061E3,9.419846E3,8.1914243E3,7.189513E3,5.339326E3,7.07411E3,8.761674E3],"split_indices":[3,3,3,1,3,3,3,0,0,0,0,0,0,0,0],"split_type":[0,0,0,0,0,0,0,0,0,0,0,0,0,0,0],"sum_hessian":[5.583E3,1.814E3,3.769E3,1.152E3,6.62E2,2.84E3,9.29E2,5.52E2,6E2,4.46E2,2.16E2,2.24E2,2.616E3,4.8E2,4.49E2],"tree_param":{"num_deleted":"0","num_feature":"5","num_nodes":"15","size_leaf_vector":"1"}},{"base_weights":[7.2505325E5,9.7961394E5,6.023072E5,1.0278828E6,8.941937E5,5.4329025E5,7.8194675E5,1.079759E4,9.784395E3,9.325858E3,8.109887E3,7.1179375E3,5.2859536E3,7.003516E3,8.674251E3],"categories":[],"categories_nodes":[],"categories_segments":[],"categories_sizes":[],"default_left":[0,0,0,0,0,0,0,0,0,0,0,0,0,0,0],"id":18,"left_children":[1,3,5,7,9,11,13,-1,-1,-1,-1,-1,-1,-1,-1],"loss_changes":[1.7388954E14,6.564455E12,3.95439E13,1.9009257E12,1.3616053E12,6.6584744E12,5.878938E12,0E0,0E0,0E0,0E0,0E0,0E0,0E0,0E0],"parents":[2147483647,0,0,1,1,2,2,3,3,4,4,5,5,6,6],"right_children":[2,4,6,8,10,12,14,-1,-1,-1,-1,-1,-1,-1,-1],"split_conditions":[8E0,5E0,2E1,1.1E1,7E0,9E0,2.2E1,1.079759E4,9.784395E3,9.325858E3,8.109887E3,7.1179375E3,5.2859536E3,7.003516E3,8.674251E3],"split_indices":[3,3,3,1,3,3,3,0,0,0,0,0,0,0,0],"split_type":[0,0,0,0,0,0,0,0,0,0,0,0,0,0,0],"sum_hessian":[5.583E3,1.814E3,3.769E3,1.152E3,6.62E2,2.84E3,9.29E2,5.52E2,6E2,4.46E2,2.16E2,2.24E2,2.616E3,4.8E2,4.49E2],"tree_param":{"num_deleted":"0","num_feature":"5","num_nodes":"15","size_leaf_vector":"1"}},{"base_weights":[7.1781456E5,9.6983875E5,5.9629156E5,1.00507725E6,8.557372E5,5.479319E5,8.113638E5,1.0526924E4,9.600306E3,9.299158E3,7.921663E3,5.980579E3,5.0223813E3,7.6255986E3,9.121606E3],"categories":[],"categories_nodes":[],"categories_segments":[],"categories_sizes":[],"default_left":[0,0,0,0,0,0,0,0,0,0,0,0,0,0,0],"id":19,"left_children":[1,3,5,7,9,11,13,-1,-1,-1,-1,-1,-1,-1,-1],"loss_changes":[1.7044121E14,6.437619E12,3.8766643E13,1.9513915E12,1.3146291E12,6.7565204E12,2.6987494E12,0E0,0E0,0E0,0E0,0E0,0E0,0E0,0E0],"parents":[2147483647,0,0,1,1,2,2,3,3,4,4,5,5,6,6],"right_children":[2,4,6,8,10,12,14,-1,-1,-1,-1,-1,-1,-1,-1],"split_conditions":[8E0,6E0,2.1E1,1.1E1,1.1E1,1.1E1,2.3E1,1.0526924E4,9.600306E3,9.299158E3,7.921663E3,5.980579E3,5.0223813E3,7.6255986E3,9.121606E3],"split_indices":[3,3,3,1,1,1,3,0,0,0,0,0,0,0,0],"split_type":[0,0,0,0,0,0,0,0,0,0,0,0,0,0,0],"sum_hessian":[5.583E3,1.814E3,3.769E3,1.38E3,4.34E2,3.08E3,6.89E2,6.6E2,7.2E2,1.94E2,2.4E2,1.463E3,1.617E3,4.7E2,2.19E2],"tree_param":{"num_deleted":"0","num_feature":"5","num_nodes":"15","size_leaf_vector":"1"}},{"base_weights":[7.1064806E5,9.6016094E5,5.90336E5,1.00758625E6,8.7623706E5,5.323881E5,7.667226E5,1.0584731E4,9.59087E3,9.139948E3,7.944217E3,6.9929854E3,5.1783438E3,6.868128E3,8.504335E3],"categories":[],"categories_nodes":[],"categories_segments":[],"categories_sizes":[],"default_left":[0,0,0,0,0,0,0,0,0,0,0,0,0,0,0],"id":20,"left_children":[1,3,5,7,9,11,13,-1,-1,-1,-1,-1,-1,-1,-1],"loss_changes":[1.6706161E14,6.3411166E12,3.8125888E13,1.8303272E12,1.3219775E12,6.539222E12,5.6370104E12,0E0,0E0,0E0,0E0,0E0,0E0,0E0,0E0],"parents":[2147483647,0,0,1,1,2,2,3,3,4,4,5,5,6,6],"right_children":[2,4,6,8,10,12,14,-1,-1,-1,-1,-1,-1,-1,-1],"split_conditions":[8E0,5E0,2E1,1.1E1,7E0,9E0,2.2E1,1.0584731E4,9.59087E3,9.139948E3,7.944217E3,6.9929854E3,5.1783438E3,6.868128E3,8.504335E3],"split_indices":[3,3,3,1,3,3,3,0,0,0,0,0,0,0,0],"split_type":[0,0,0,0,0,0,0,0,0,0,0,0,0,0,0],"sum_hessian":[5.583E3,1.814E3,3.769E3,1.152E3,6.62E2,2.84E3,9.29E2,5.52E2,6E2,4.46E2,2.16E2,2.24E2,2.616E3,4.8E2,4.49E2],"tree_param":{"num_deleted":"0","num_feature":"5","num_nodes":"15","size_leaf_vector":"1"}},{"base_weights":[7.035532E5,9.505799E5,5.8443994E5,9.975279E5,8.6750044E5,5.2706856E5,7.5907194E5,1.0479075E4,9.495121E3,9.048752E3,7.8651406E3,6.923366E3,5.12658E3,6.7995894E3,8.41948E3],"categories":[],"categories_nodes":[],"categories_segments":[],"categories_sizes":[],"default_left":[0,0,0,0,0,0,0,0,0,0,0,0,0,0,0],"id":21,"left_children":[1,3,5,7,9,11,13,-1,-1,-1,-1,-1,-1,-1,-1],"loss_changes":[1.6374885E14,6.213878E12,3.737118E13,1.7942226E12,1.295134E12,6.4112453E12,5.52514E12,0E0,0E0,0E0,0E0,0E0,0E0,0E0,0E0],"parents":[2147483647,0,0,1,1,2,2,3,3,4,4,5,5,6,6],"right_children":[2,4,6,8,10,12,14,-1,-1,-1,-1,-1,-1,-1,-1],"split_conditions":[8E0,5E0,2E1,1.1E1,7E0,9E0,2.2E1,1.0479075E4,9.495121E3,9.048752E3,7.8651406E3,6.923366E3,5.12658E3,6.7995894E3,8.41948E3],"split_indices":[3,3,3,1,3,3,3,0,0,0,0,0,0,0,0],"split_type":[0,0,0,0,0,0,0,0,0,0,0,0,0,0,0],"sum_hessian":[5.583E3,1.814E3,3.769E3,1.152E3,6.62E2,2.84E3,9.29E2,5.52E2,6E2,4.46E2,2.16E2,2.24E2,2.616E3,4.8E2,4.49E2],"tree_param":{"num_deleted":"0","num_feature":"5","num_nodes":"15","size_leaf_vector":"1"}},{"base_weights":[6.965292E5,9.410944E5,5.786028E5,9.8756994E5,8.58851E5,5.2180212E5,7.5149756E5,1.0374475E4,9.400328E3,8.958468E3,7.7868516E3,6.8544404E3,5.075334E3,6.731735E3,8.335473E3],"categories":[],"categories_nodes":[],"categories_segments":[],"categories_sizes":[],"default_left":[0,0,0,0,0,0,0,0,0,0,0,0,0,0,0],"id":22,"left_children":[1,3,5,7,9,11,13,-1,-1,-1,-1,-1,-1,-1,-1],"loss_changes":[1.6050185E14,6.089324E12,3.6631373E13,1.7585878E12,1.2687602E12,6.285752E12,5.4154504E12,0E0,0E0,0E0,0E0,0E0,0E0,0E0,0E0],"parents":[2147483647,0,0,1,1,2,2,3,3,4,4,5,5,6,6],"right_children":[2,4,6,8,10,12,14,-1,-1,-1,-1,-1,-1,-1,-1],"split_conditions":[8E0,5E0,2E1,1.1E1,7E0,9E0,2.2E1,1.0374475E4,9.400328E3,8.958468E3,7.7868516E3,6.8544404E3,5.075334E3,6.731735E3,8.335473E3],"split_indices":[3,3,3,1,3,3,3,0,0,0,0,0,0,0,0],"split_type":[0,0,0,0,0,0,0,0,0,0,0,0,0,0,0],"sum_hessian":[5.583E3,1.814E3,3.769E3,1.152E3,6.62E2,2.84E3,9.29E2,5.52E2,6E2,4.46E2,2.16E2,2.24E2,2.616E3,4.8E2,4.49E2],"tree_param":{"num_deleted":"0","num_feature":"5","num_nodes":"15","size_leaf_vector":"1"}},{"base_weights":[6.8957525E5,9.3170356E5,5.7282394E5,9.777114E5,8.502877E5,5.1658828E5,7.4399875E5,1.0270917E4,9.306481E3,8.869083E3,7.709342E3,6.786201E3,5.0246E3,6.664557E3,8.252303E3],"categories":[],"categories_nodes":[],"categories_segments":[],"categories_sizes":[],"default_left":[0,0,0,0,0,0,0,0,0,0,0,0,0,0,0],"id":23,"left_children":[1,3,5,7,9,11,13,-1,-1,-1,-1,-1,-1,-1,-1],"loss_changes":[1.5731901E14,5.96732E12,3.5906195E13,1.723624E12,1.2428897E12,6.162741E12,5.3080427E12,0E0,0E0,0E0,0E0,0E0,0E0,0E0,0E0],"parents":[2147483647,0,0,1,1,2,2,3,3,4,4,5,5,6,6],"right_children":[2,4,6,8,10,12,14,-1,-1,-1,-1,-1,-1,-1,-1],"split_conditions":[8E0,5E0,2E1,1.1E1,7E0,9E0,2.2E1,1.0270917E4,9.306481E3,8.869083E3,7.709342E3,6.786201E3,5.0246E3,6.664557E3,8.252303E3],"split_indices":[3,3,3,1,3,3,3,0,0,0,0,0,0,0,0],"split_type":[0,0,0,0,0,0,0,0,0,0,0,0,0,0,0],"sum_hessian":[5.583E3,1.814E3,3.769E3,1.152E3,6.62E2,2.84E3,9.29E2,5.52E2,6E2,4.46E2,2.16E2,2.24E2,2.616E3,4.8E2,4.49E2],"tree_param":{"num_deleted":"0","num_feature":"5","num_nodes":"15","size_leaf_vector":"1"}},{"base_weights":[6.8269075E5,9.2240644E5,5.671028E5,9.560035E5,8.13625E5,5.2101922E5,7.720541E5,1.0014654E4,9.129988E3,8.871519E3,7.5075625E3,5.706757E3,4.7576694E3,7.247954E3,8.697212E3],"categories":[],"categories_nodes":[],"categories_segments":[],"categories_sizes":[],"default_left":[0,0,0,0,0,0,0,0,0,0,0,0,0,0,0],"id":24,"left_children":[1,3,5,7,9,11,13,-1,-1,-1,-1,-1,-1,-1,-1],"loss_changes":[1.541998E14,5.8553826E12,3.5204907E13,1.7856327E12,1.344761E12,6.6516964E12,2.5543647E12,0E0,0E0,0E0,0E0,0E0,0E0,0E0,0E0],"parents":[2147483647,0,0,1,1,2,2,3,3,4,4,5,5,6,6],"right_children":[2,4,6,8,10,12,14,-1,-1,-1,-1,-1,-1,-1,-1],"split_conditions":[8E0,6E0,2.1E1,1.1E1,1.1E1,1.1E1,2.3E1,1.0014654E4,9.129988E3,8.871519E3,7.5075625E3,5.706757E3,4.7576694E3,7.247954E3,8.697212E3],"split_indices":[3,3,3,1,1,1,3,0,0,0,0,0,0,0,0],"split_type":[0,0,0,0,0,0,0,0,0,0,0,0,0,0,0],"sum_hessian":[5.583E3,1.814E3,3.769E3,1.38E3,4.34E2,3.08E3,6.89E2,6.6E2,7.2E2,1.94E2,2.4E2,1.463E3,1.617E3,4.7E2,2.19E2],"tree_param":{"num_deleted":"0","num_feature":"5","num_nodes":"15","size_leaf_vector":"1"}},{"base_weights":[6.7587494E5,9.1320194E5,5.6143875E5,9.584056E5,8.3321244E5,5.0622194E5,7.2951356E5,1.0068428E4,9.122423E3,8.90589E3,7.8274624E3,6.1367925E3,4.8536553E3,6.5357793E3,8.0905923E3],"categories":[],"categories_nodes":[],"categories_segments":[],"categories_sizes":[],"default_left":[0,0,0,0,0,0,0,0,0,0,0,0,0,0,0],"id":25,"left_children":[1,3,5,7,9,11,13,-1,-1,-1,-1,-1,-1,-1,-1],"loss_changes":[1.5114232E14,5.764249E12,3.4618376E13,1.6596693E12,1.2225893E12,6.0693257E12,5.088731E12,0E0,0E0,0E0,0E0,0E0,0E0,0E0,0E0],"parents":[2147483647,0,0,1,1,2,2,3,3,4,4,5,5,6,6],"right_children":[2,4,6,8,10,12,14,-1,-1,-1,-1,-1,-1,-1,-1],"split_conditions":[8E0,5E0,2E1,1.1E1,1.1E1,1E1,2.2E1,1.0068428E4,9.122423E3,8.90589E3,7.8274624E3,6.1367925E3,4.8536553E3,6.5357793E3,8.0905923E3],"split_indices":[3,3,3,1,1,3,3,0,0,0,0,0,0,0,0],"split_type":[0,0,0,0,0,0,0,0,0,0,0,0,0,0,0],"sum_hessian":[5.583E3,1.814E3,3.769E3,1.152E3,6.62E2,2.84E3,9.29E2,5.52E2,6E2,3.02E2,3.6E2,4.57E2,2.383E3,4.8E2,4.49E2],"tree_param":{"num_deleted":"0","num_feature":"5","num_nodes":"15","size_leaf_vector":"1"}},{"base_weights":[6.691272E5,9.0408975E5,5.558312E5,9.370928E5,7.97236E5,5.0116356E5,7.222342E5,9.816026E3,8.949873E3,8.694656E3,7.3548486E3,6.6061304E3,4.872632E3,6.470557E3,8.009866E3],"categories":[],"categories_nodes":[],"categories_segments":[],"categories_sizes":[],"default_left":[0,0,0,0,0,0,0,0,0,0,0,0,0,0,0],"id":26,"left_children":[1,3,5,7,9,11,13,-1,-1,-1,-1,-1,-1,-1,-1],"loss_changes":[1.481455E14,5.653385E12,3.3933194E13,1.7096654E12,1.3007376E12,5.9749035E12,4.987732E12,0E0,0E0,0E0,0E0,0E0,0E0,0E0,0E0],"parents":[2147483647,0,0,1,1,2,2,3,3,4,4,5,5,6,6],"right_children":[2,4,6,8,10,12,14,-1,-1,-1,-1,-1,-1,-1,-1],"split_conditions":[8E0,6E0,2E1,1.1E1,1.1E1,9E0,2.2E1,9.816026E3,8.949873E3,8.694656E3,7.3548486E3,6.6061304E3,4.872632E3,6.470557E3,8.009866E3],"split_indices":[3,3,3,1,1,3,3,0,0,0,0,0,0,0,0],"split_type":[0,0,0,0,0,0,0,0,0,0,0,0,0,0,0],"sum_hessian":[5.583E3,1.814E3,3.769E3,1.38E3,4.34E2,2.84E3,9.29E2,6.6E2,7.2E2,1.94E2,2.4E2,2.24E2,2.616E3,4.8E2,4.49E2],"tree_param":{"num_deleted":"0","num_feature":"5","num_nodes":"15","size_leaf_vector":"1"}},{"base_weights":[6.624468E5,8.95068E5,5.5027975E5,9.3948144E5,8.164801E5,4.96156E5,7.150274E5,9.869942E3,8.942E3,8.52266E3,7.3900186E3,6.0184604E3,4.756433E3,6.4059863E3,7.9299453E3],"categories":[],"categories_nodes":[],"categories_segments":[],"categories_sizes":[],"default_left":[0,0,0,0,0,0,0,0,0,0,0,0,0,0,0],"id":27,"left_children":[1,3,5,7,9,11,13,-1,-1,-1,-1,-1,-1,-1,-1],"loss_changes":[1.4520748E14,5.567888E12,3.3261435E13,1.5980634E12,1.2084293E12,5.872965E12,4.888847E12,0E0,0E0,0E0,0E0,0E0,0E0,0E0,0E0],"parents":[2147483647,0,0,1,1,2,2,3,3,4,4,5,5,6,6],"right_children":[2,4,6,8,10,12,14,-1,-1,-1,-1,-1,-1,-1,-1],"split_conditions":[8E0,5E0,2E1,1.1E1,7E0,1E1,2.2E1,9.869942E3,8.942E3,8.52266E3,7.3900186E3,6.0184604E3,4.756433E3,6.4059863E3,7.9299453E3],"split_indices":[3,3,3,1,3,3,3,0,0,0,0,0,0,0,0],"split_type":[0,0,0,0,0,0,0,0,0,0,0,0,0,0,0],"sum_hessian":[5.583E3,1.814E3,3.769E3,1.152E3,6.62E2,2.84E3,9.29E2,5.52E2,6E2,4.46E2,2.16E2,4.57E2,2.383E3,4.8E2,4.49E2],"tree_param":{"num_deleted":"0","num_feature":"5","num_nodes":"15","size_leaf_vector":"1"}},{"base_weights":[6.5583306E5,8.8613644E5,5.447836E5,9.3010294E5,8.083394E5,4.9119822E5,7.0789256E5,9.771422E3,8.8527295E3,8.437625E3,7.3164585E3,5.3995137E3,4.471292E3,6.342059E3,7.8508223E3],"categories":[],"categories_nodes":[],"categories_segments":[],"categories_sizes":[],"default_left":[0,0,0,0,0,0,0,0,0,0,0,0,0,0,0],"id":28,"left_children":[1,3,5,7,9,11,13,-1,-1,-1,-1,-1,-1,-1,-1],"loss_changes":[1.423285E14,5.4563533E12,3.2602895E13,1.566388E12,1.1838675E12,5.862496E12,4.7918413E12,0E0,0E0,0E0,0E0,0E0,0E0,0E0,0E0],"parents":[2147483647,0,0,1,1,2,2,3,3,4,4,5,5,6,6],"right_children":[2,4,6,8,10,12,14,-1,-1,-1,-1,-1,-1,-1,-1],"split_conditions":[8E0,5E0,2E1,1.1E1,7E0,1.1E1,2.2E1,9.771422E3,8.8527295E3,8.437625E3,7.3164585E3,5.3995137E3,4.471292E3,6.342059E3,7.8508223E3],"split_indices":[3,3,3,1,3,1,3,0,0,0,0,0,0,0,0],"split_type":[0,0,0,0,0,0,0,0,0,0,0,0,0,0,0],"sum_hessian":[5.583E3,1.814E3,3.769E3,1.152E3,6.62E2,2.84E3,9.29E2,5.52E2,6E2,4.46E2,2.16E2,1.343E3,1.497E3,4.8E2,4.49E2],"tree_param":{"num_deleted":"0","num_feature":"5","num_nodes":"15","size_leaf_vector":"1"}},{"base_weights":[6.492852E5,8.7729406E5,5.393421E5,9.2081806E5,8.0027975E5,4.9542666E5,7.346527E5,9.673884E3,8.76435E3,8.564565E3,7.5091167E3,5.4416675E3,4.5101943E3,6.888713E3,8.293272E3],"categories":[],"categories_nodes":[],"categories_segments":[],"categories_sizes":[],"default_left":[0,0,0,0,0,0,0,0,0,0,0,0,0,0,0],"id":29,"left_children":[1,3,5,7,9,11,13,-1,-1,-1,-1,-1,-1,-1,-1],"loss_changes":[1.3950644E14,5.3468316E12,3.1971938E13,1.5354508E12,1.195578E12,6.4230565E12,2.4194088E12,0E0,0E0,0E0,0E0,0E0,0E0,0E0,0E0],"parents":[2147483647,0,0,1,1,2,2,3,3,4,4,5,5,6,6],"right_children":[2,4,6,8,10,12,14,-1,-1,-1,-1,-1,-1,-1,-1],"split_conditions":[8E0,5E0,2.1E1,1.1E1,1.1E1,1.1E1,2.3E1,9.673884E3,8.76435E3,8.564565E3,7.5091167E3,5.4416675E3,4.5101943E3,6.888713E3,8.293272E3],"split_indices":[3,3,3,1,1,1,3,0,0,0,0,0,0,0,0],"split_type":[0,0,0,0,0,0,0,0,0,0,0,0,0,0,0],"sum_hessian":[5.583E3,1.814E3,3.769E3,1.152E3,6.62E2,3.08E3,6.89E2,5.52E2,6E2,3.02E2,3.6E2,1.463E3,1.617E3,4.7E2,2.19E2],"tree_param":{"num_deleted":"0","num_feature":"5","num_nodes":"15","size_leaf_vector":"1"}},{"base_weights":[6.4280306E5,8.685401E5,5.339554E5,9.0035644E5,7.655358E5,4.8134078E5,6.9411044E5,9.431499E3,8.598754E3,8.365312E3,7.0491494E3,6.3830957E3,4.6766123E3,6.2195703E3,7.6969194E3],"categories":[],"categories_nodes":[],"categories_segments":[],"categories_sizes":[],"default_left":[0,0,0,0,0,0,0,0,0,0,0,0,0,0,0],"id":30,"left_children":[1,3,5,7,9,11,13,-1,-1,-1,-1,-1,-1,-1,-1],"loss_changes":[1.36740484E14,5.258785E12,3.1433792E13,1.5814204E12,1.282484E12,5.8018297E12,4.592998E12,0E0,0E0,0E0,0E0,0E0,0E0,0E0,0E0],"parents":[2147483647,0,0,1,1,2,2,3,3,4,4,5,5,6,6],"right_children":[2,4,6,8,10,12,14,-1,-1,-1,-1,-1,-1,-1,-1],"split_conditions":[8E0,6E0,2E1,1.1E1,1.1E1,9E0,2.2E1,9.431499E3,8.598754E3,8.365312E3,7.0491494E3,6.3830957E3,4.6766123E3,6.2195703E3,7.6969194E3],"split_indices":[3,3,3,1,1,3,3,0,0,0,0,0,0,0,0],"split_type":[0,0,0,0,0,0,0,0,0,0,0,0,0,0,0],"sum_hessian":[5.583E3,1.814E3,3.769E3,1.38E3,4.34E2,2.84E3,9.29E2,6.6E2,7.2E2,1.94E2,2.4E2,2.24E2,2.616E3,4.8E2,4.49E2],"tree_param":{"num_deleted":"0","num_feature":"5","num_nodes":"15","size_leaf_vector":"1"}},{"base_weights":[6.363855E5,8.598732E5,5.286225E5,9.0263594E5,7.84209E5,4.675031E5,6.6404375E5,9.483176E3,8.591008E3,8.1905146E3,7.088228E3,5.8057793E3,4.4313003E3,6.0197744E3,7.620121E3],"categories":[],"categories_nodes":[],"categories_segments":[],"categories_sizes":[],"default_left":[0,0,0,0,0,0,0,0,0,0,0,0,0,0,0],"id":31,"left_children":[1,3,5,7,9,11,13,-1,-1,-1,-1,-1,-1,-1,-1],"loss_changes":[1.3402902E14,5.1648324E12,3.0893297E13,1.4783412E12,1.1608827E12,6.911005E12,6.6555216E12,0E0,0E0,0E0,0E0,0E0,0E0,0E0,0E0],"parents":[2147483647,0,0,1,1,2,2,3,3,4,4,5,5,6,6],"right_children":[2,4,6,8,10,12,14,-1,-1,-1,-1,-1,-1,-1,-1],"split_conditions":[8E0,5E0,1.9E1,1.1E1,7E0,1E1,2.2E1,9.483176E3,8.591008E3,8.1905146E3,7.088228E3,5.8057793E3,4.4313003E3,6.0197744E3,7.620121E3],"split_indices":[3,3,3,1,3,3,3,0,0,0,0,0,0,0,0],"split_type":[0,0,0,0,0,0,0,0,0,0,0,0,0,0,0],"sum_hessian":[5.583E3,1.814E3,3.769E3,1.152E3,6.62E2,2.6E3,1.169E3,5.52E2,6E2,4.46E2,2.16E2,4.57E2,2.143E3,7.2E2,4.49E2],"tree_param":{"num_deleted":"0","num_feature":"5","num_nodes":"15","size_leaf_vector":"1"}},{"base_weights":[6.300319E5,8.512928E5,5.233426E5,8.9362525E5,7.7638994E5,4.62832E5,6.5741494E5,9.388516E3,8.505241E3,8.313883E3,7.2807725E3,5.7478486E3,4.387008E3,5.9596597E3,7.5440894E3],"categories":[],"categories_nodes":[],"categories_segments":[],"categories_sizes":[],"default_left":[0,0,0,0,0,0,0,0,0,0,0,0,0,0,0],"id":32,"left_children":[1,3,5,7,9,11,13,-1,-1,-1,-1,-1,-1,-1,-1],"loss_changes":[1.3137137E14,5.0612163E12,3.0280862E13,1.4490146E12,1.1563193E12,6.774539E12,6.523854E12,0E0,0E0,0E0,0E0,0E0,0E0,0E0,0E0],"parents":[2147483647,0,0,1,1,2,2,3,3,4,4,5,5,6,6],"right_children":[2,4,6,8,10,12,14,-1,-1,-1,-1,-1,-1,-1,-1],"split_conditions":[8E0,5E0,1.9E1,1.1E1,1.1E1,1E1,2.2E1,9.388516E3,8.505241E3,8.313883E3,7.2807725E3,5.7478486E3,4.387008E3,5.9596597E3,7.5440894E3],"split_indices":[3,3,3,1,1,3,3,0,0,0,0,0,0,0,0],"split_type":[0,0,0,0,0,0,0,0,0,0,0,0,0,0,0],"sum_hessian":[5.583E3,1.814E3,3.769E3,1.152E3,6.62E2,2.6E3,1.169E3,5.52E2,6E2,3.02E2,3.6E2,4.57E2,2.143E3,7.2E2,4.49E2],"tree_param":{"num_deleted":"0","num_feature":"5","num_nodes":"15","size_leaf_vector":"1"}},{"base_weights":[6.237418E5,8.427983E5,5.1811544E5,8.7375994E5,7.4256675E5,4.582076E5,6.508524E5,9.152763E3,8.344865E3,8.123317E3,6.830368E3,5.6904956E3,4.3431587E3,5.900146E3,7.468816E3],"categories":[],"categories_nodes":[],"categories_segments":[],"categories_sizes":[],"default_left":[0,0,0,0,0,0,0,0,0,0,0,0,0,0,0],"id":33,"left_children":[1,3,5,7,9,11,13,-1,-1,-1,-1,-1,-1,-1,-1],"loss_changes":[1.2876674E14,4.9837727E12,2.9680841E13,1.4880048E12,1.2517649E12,6.6408583E12,6.394703E12,0E0,0E0,0E0,0E0,0E0,0E0,0E0,0E0],"parents":[2147483647,0,0,1,1,2,2,3,3,4,4,5,5,6,6],"right_children":[2,4,6,8,10,12,14,-1,-1,-1,-1,-1,-1,-1,-1],"split_conditions":[8E0,6E0,1.9E1,1.1E1,1.1E1,1E1,2.2E1,9.152763E3,8.344865E3,8.123317E3,6.830368E3,5.6904956E3,4.3431587E3,5.900146E3,7.468816E3],"split_indices":[3,3,3,1,1,3,3,0,0,0,0,0,0,0,0],"split_type":[0,0,0,0,0,0,0,0,0,0,0,0,0,0,0],"sum_hessian":[5.583E3,1.814E3,3.769E3,1.38E3,4.34E2,2.6E3,1.169E3,6.6E2,7.2E2,1.94E2,2.4E2,4.57E2,2.143E3,7.2E2,4.49E2],"tree_param":{"num_deleted":"0","num_feature":"5","num_nodes":"15","size_leaf_vector":"1"}},{"base_weights":[6.175144E5,8.3438825E5,5.129405E5,8.759801E5,7.6079875E5,4.6231912E5,6.67029E5,9.2034375E3,8.3370205E3,7.9507246E3,6.8669204E3,5.1015186E3,4.1909517E3,5.9790806E3,7.3942935E3],"categories":[],"categories_nodes":[],"categories_segments":[],"categories_sizes":[],"default_left":[0,0,0,0,0,0,0,0,0,0,0,0,0,0,0],"id":34,"left_children":[1,3,5,7,9,11,13,-1,-1,-1,-1,-1,-1,-1,-1],"loss_changes":[1.2621365E14,4.8887465E12,2.9098202E13,1.3953275E12,1.137965E12,5.660096E12,4.2119536E12,0E0,0E0,0E0,0E0,0E0,0E0,0E0,0E0],"parents":[2147483647,0,0,1,1,2,2,3,3,4,4,5,5,6,6],"right_children":[2,4,6,8,10,12,14,-1,-1,-1,-1,-1,-1,-1,-1],"split_conditions":[8E0,5E0,2E1,1.1E1,7E0,1.1E1,2.2E1,9.2034375E3,8.3370205E3,7.9507246E3,6.8669204E3,5.1015186E3,4.1909517E3,5.9790806E3,7.3942935E3],"split_indices":[3,3,3,1,3,1,3,0,0,0,0,0,0,0,0],"split_type":[0,0,0,0,0,0,0,0,0,0,0,0,0,0,0],"sum_hessian":[5.583E3,1.814E3,3.769E3,1.152E3,6.62E2,2.84E3,9.29E2,5.52E2,6E2,4.46E2,2.16E2,1.343E3,1.497E3,4.8E2,4.49E2],"tree_param":{"num_deleted":"0","num_feature":"5","num_nodes":"15","size_leaf_vector":"1"}},{"base_weights":[6.1134906E5,8.260622E5,5.078171E5,8.5642144E5,7.277812E5,4.4901188E5,6.3811156E5,8.971526E3,8.17892E3,7.968736E3,6.688567E3,5.58798E3,4.2534995E3,5.785955E3,7.3205146E3],"categories":[],"categories_nodes":[],"categories_segments":[],"categories_sizes":[],"default_left":[0,0,0,0,0,0,0,0,0,0,0,0,0,0,0],"id":35,"left_children":[1,3,5,7,9,11,13,-1,-1,-1,-1,-1,-1,-1,-1],"loss_changes":[1.2371103E14,4.79211E12,2.859918E13,1.4334453E12,1.2380075E12,6.5190557E12,6.117812E12,0E0,0E0,0E0,0E0,0E0,0E0,0E0,0E0],"parents":[2147483647,0,0,1,1,2,2,3,3,4,4,5,5,6,6],"right_children":[2,4,6,8,10,12,14,-1,-1,-1,-1,-1,-1,-1,-1],"split_conditions":[8E0,6E0,1.9E1,1.1E1,1.1E1,1E1,2.2E1,8.971526E3,8.17892E3,7.968736E3,6.688567E3,5.58798E3,4.2534995E3,5.785955E3,7.3205146E3],"split_indices":[3,3,3,1,1,3,3,0,0,0,0,0,0,0,0],"split_type":[0,0,0,0,0,0,0,0,0,0,0,0,0,0,0],"sum_hessian":[5.583E3,1.814E3,3.769E3,1.38E3,4.34E2,2.6E3,1.169E3,6.6E2,7.2E2,1.94E2,2.4E2,4.57E2,2.143E3,7.2E2,4.49E2],"tree_param":{"num_deleted":"0","num_feature":"5","num_nodes":"15","size_leaf_vector":"1"}},{"base_weights":[6.052454E5,8.1781906E5,5.02745E5,8.586842E5,7.4551844E5,4.4452553E5,6.317417E5,9.022017E3,8.172135E3,7.792336E3,6.7263267E3,5.532222E3,4.2109844E3,5.7281763E3,7.247472E3],"categories":[],"categories_nodes":[],"categories_segments":[],"categories_sizes":[],"default_left":[0,0,0,0,0,0,0,0,0,0,0,0,0,0,0],"id":36,"left_children":[1,3,5,7,9,11,13,-1,-1,-1,-1,-1,-1,-1,-1],"loss_changes":[1.2125807E14,4.7223165E12,2.8032312E13,1.3435195E12,1.1050817E12,6.390341E12,5.996714E12,0E0,0E0,0E0,0E0,0E0,0E0,0E0,0E0],"parents":[2147483647,0,0,1,1,2,2,3,3,4,4,5,5,6,6],"right_children":[2,4,6,8,10,12,14,-1,-1,-1,-1,-1,-1,-1,-1],"split_conditions":[8E0,5E0,1.9E1,1.1E1,7E0,1E1,2.2E1,9.022017E3,8.172135E3,7.792336E3,6.7263267E3,5.532222E3,4.2109844E3,5.7281763E3,7.247472E3],"split_indices":[3,3,3,1,3,3,3,0,0,0,0,0,0,0,0],"split_type":[0,0,0,0,0,0,0,0,0,0,0,0,0,0,0],"sum_hessian":[5.583E3,1.814E3,3.769E3,1.152E3,6.62E2,2.6E3,1.169E3,5.52E2,6E2,4.46E2,2.16E2,4.57E2,2.143E3,7.2E2,4.49E2],"tree_param":{"num_deleted":"0","num_feature":"5","num_nodes":"15","size_leaf_vector":"1"}},{"base_weights":[5.992027E5,8.096584E5,4.977236E5,8.5011225E5,7.380851E5,4.570019E5,6.7883344E5,8.93196E3,8.09055E3,7.913286E3,6.9135146E3,5.048557E3,4.134203E3,6.3526816E3,7.690172E3],"categories":[],"categories_nodes":[],"categories_segments":[],"categories_sizes":[],"default_left":[0,0,0,0,0,0,0,0,0,0,0,0,0,0,0],"id":37,"left_children":[1,3,5,7,9,11,13,-1,-1,-1,-1,-1,-1,-1,-1],"loss_changes":[1.1885356E14,4.627827E12,2.7493898E13,1.3169443E12,1.1025986E12,6.216831E12,2.2223771E12,0E0,0E0,0E0,0E0,0E0,0E0,0E0,0E0],"parents":[2147483647,0,0,1,1,2,2,3,3,4,4,5,5,6,6],"right_children":[2,4,6,8,10,12,14,-1,-1,-1,-1,-1,-1,-1,-1],"split_conditions":[8E0,5E0,2.1E1,1.1E1,1.1E1,1.1E1,2.3E1,8.93196E3,8.09055E3,7.913286E3,6.9135146E3,5.048557E3,4.134203E3,6.3526816E3,7.690172E3],"split_indices":[3,3,3,1,1,1,3,0,0,0,0,0,0,0,0],"split_type":[0,0,0,0,0,0,0,0,0,0,0,0,0,0,0],"sum_hessian":[5.583E3,1.814E3,3.769E3,1.152E3,6.62E2,3.08E3,6.89E2,5.52E2,6E2,3.02E2,3.6E2,1.463E3,1.617E3,4.7E2,2.19E2],"tree_param":{"num_deleted":"0","num_feature":"5","num_nodes":"15","size_leaf_vector":"1"}},{"base_weights":[5.932205E5,8.015793E5,4.927525E5,8.3112156E5,7.059485E5,4.3552147E5,6.195603E5,8.706351E3,7.937435E3,7.7384546E3,6.480819E3,5.431836E3,4.1231963E3,5.6192607E3,7.105264E3],"categories":[],"categories_nodes":[],"categories_segments":[],"categories_sizes":[],"default_left":[0,0,0,0,0,0,0,0,0,0,0,0,0,0,0],"id":38,"left_children":[1,3,5,7,9,11,13,-1,-1,-1,-1,-1,-1,-1,-1],"loss_changes":[1.16497096E14,4.5409884E12,2.7090372E13,1.3486197E12,1.2075905E12,6.273236E12,5.734788E12,0E0,0E0,0E0,0E0,0E0,0E0,0E0,0E0],"parents":[2147483647,0,0,1,1,2,2,3,3,4,4,5,5,6,6],"right_children":[2,4,6,8,10,12,14,-1,-1,-1,-1,-1,-1,-1,-1],"split_conditions":[8E0,6E0,1.9E1,1.1E1,1.1E1,1E1,2.2E1,8.706351E3,7.937435E3,7.7384546E3,6.480819E3,5.431836E3,4.1231963E3,5.6192607E3,7.105264E3],"split_indices":[3,3,3,1,1,3,3,0,0,0,0,0,0,0,0],"split_type":[0,0,0,0,0,0,0,0,0,0,0,0,0,0,0],"sum_hessian":[5.583E3,1.814E3,3.769E3,1.38E3,4.34E2,2.6E3,1.169E3,6.6E2,7.2E2,1.94E2,2.4E2,4.57E2,2.143E3,7.2E2,4.49E2],"tree_param":{"num_deleted":"0","num_feature":"5","num_nodes":"15","size_leaf_vector":"1"}},{"base_weights":[5.872978E5,7.935805E5,4.878309E5,8.3332725E5,7.232615E5,4.3116994E5,6.133756E5,8.755896E3,7.9305366E3,7.564291E3,6.516061E3,5.377636E3,4.0819834E3,5.563146E3,7.0343696E3],"categories":[],"categories_nodes":[],"categories_segments":[],"categories_sizes":[],"default_left":[0,0,0,0,0,0,0,0,0,0,0,0,0,0,0],"id":39,"left_children":[1,3,5,7,9,11,13,-1,-1,-1,-1,-1,-1,-1,-1],"loss_changes":[1.1418694E14,4.4701214E12,2.6553367E13,1.268022E12,1.0828015E12,6.149353E12,5.6212733E12,0E0,0E0,0E0,0E0,0E0,0E0,0E0,0E0],"parents":[2147483647,0,0,1,1,2,2,3,3,4,4,5,5,6,6],"right_children":[2,4,6,8,10,12,14,-1,-1,-1,-1,-1,-1,-1,-1],"split_conditions":[8E0,5E0,1.9E1,1.1E1,7E0,1E1,2.2E1,8.755896E3,7.9305366E3,7.564291E3,6.516061E3,5.377636E3,4.0819834E3,5.563146E3,7.0343696E3],"split_indices":[3,3,3,1,3,3,3,0,0,0,0,0,0,0,0],"split_type":[0,0,0,0,0,0,0,0,0,0,0,0,0,0,0],"sum_hessian":[5.583E3,1.814E3,3.769E3,1.152E3,6.62E2,2.6E3,1.169E3,5.52E2,6E2,4.46E2,2.16E2,4.57E2,2.143E3,7.2E2,4.49E2],"tree_param":{"num_deleted":"0","num_feature":"5","num_nodes":"15","size_leaf_vector":"1"}},{"base_weights":[5.814343E5,7.856617E5,4.8295844E5,8.2500844E5,7.1605006E5,4.2686188E5,6.072526E5,8.668495E3,7.851364E3,7.681763E3,6.703152E3,5.3239775E3,4.0411824E3,5.507592E3,6.964182E3],"categories":[],"categories_nodes":[],"categories_segments":[],"categories_sizes":[],"default_left":[0,0,0,0,0,0,0,0,0,0,0,0,0,0,0],"id":40,"left_children":[1,3,5,7,9,11,13,-1,-1,-1,-1,-1,-1,-1,-1],"loss_changes":[1.11922955E14,4.380531E12,2.60271E13,1.2429904E12,1.06562165E12,6.0279195E12,5.510007E12,0E0,0E0,0E0,0E0,0E0,0E0,0E0,0E0],"parents":[2147483647,0,0,1,1,2,2,3,3,4,4,5,5,6,6],"right_children":[2,4,6,8,10,12,14,-1,-1,-1,-1,-1,-1,-1,-1],"split_conditions":[8E0,5E0,1.9E1,1.1E1,1.1E1,1E1,2.2E1,8.668495E3,7.851364E3,7.681763E3,6.703152E3,5.3239775E3,4.0411824E3,5.507592E3,6.964182E3],"split_indices":[3,3,3,1,1,3,3,0,0,0,0,0,0,0,0],"split_type":[0,0,0,0,0,0,0,0,0,0,0,0,0,0,0],"sum_hessian":[5.583E3,1.814E3,3.769E3,1.152E3,6.62E2,2.6E3,1.169E3,5.52E2,6E2,3.02E2,3.6E2,4.57E2,2.143E3,7.2E2,4.49E2],"tree_param":{"num_deleted":"0","num_feature":"5","num_nodes":"15","size_leaf_vector":"1"}},{"base_weights":[5.7562944E5,7.7782206E5,4.7813462E5,8.065689E5,6.847711E5,4.2259684E5,6.0119075E5,8.448998E3,7.7030903E3,7.5149487E3,6.279416E3,5.2708535E3,4.0007893E3,5.4525923E3,6.894695E3],"categories":[],"categories_nodes":[],"categories_segments":[],"categories_sizes":[],"default_left":[0,0,0,0,0,0,0,0,0,0,0,0,0,0,0],"id":41,"left_children":[1,3,5,7,9,11,13,-1,-1,-1,-1,-1,-1,-1,-1],"loss_changes":[1.0970407E14,4.3026177E12,2.55111E13,1.268626E12,1.177576E12,5.9088684E12,5.401022E12,0E0,0E0,0E0,0E0,0E0,0E0,0E0,0E0],"parents":[2147483647,0,0,1,1,2,2,3,3,4,4,5,5,6,6],"right_children":[2,4,6,8,10,12,14,-1,-1,-1,-1,-1,-1,-1,-1],"split_conditions":[8E0,6E0,1.9E1,1.1E1,1.1E1,1E1,2.2E1,8.448998E3,7.7030903E3,7.5149487E3,6.279416E3,5.2708535E3,4.0007893E3,5.4525923E3,6.894695E3],"split_indices":[3,3,3,1,1,3,3,0,0,0,0,0,0,0,0],"split_type":[0,0,0,0,0,0,0,0,0,0,0,0,0,0,0],"sum_hessian":[5.583E3,1.814E3,3.769E3,1.38E3,4.34E2,2.6E3,1.169E3,6.6E2,7.2E2,1.94E2,2.4E2,4.57E2,2.143E3,7.2E2,4.49E2],"tree_param":{"num_deleted":"0","num_feature":"5","num_nodes":"15","size_leaf_vector":"1"}},{"base_weights":[5.698824E5,7.700604E5,4.7335903E5,8.087191E5,7.0166875E5,4.3450953E5,6.461444E5,8.497629E3,7.696077E3,7.343E3,6.312178E3,4.819141E3,3.9134834E3,6.039739E3,7.334907E3],"categories":[],"categories_nodes":[],"categories_segments":[],"categories_sizes":[],"default_left":[0,0,0,0,0,0,0,0,0,0,0,0,0,0,0],"id":42,"left_children":[1,3,5,7,9,11,13,-1,-1,-1,-1,-1,-1,-1,-1],"loss_changes":[1.0752867E14,4.231348E12,2.5025835E13,1.1968866E12,1.0606556E12,6.115295E12,2.0985613E12,0E0,0E0,0E0,0E0,0E0,0E0,0E0,0E0],"parents":[2147483647,0,0,1,1,2,2,3,3,4,4,5,5,6,6],"right_children":[2,4,6,8,10,12,14,-1,-1,-1,-1,-1,-1,-1,-1],"split_conditions":[8E0,5E0,2.1E1,1.1E1,7E0,1.1E1,2.3E1,8.497629E3,7.696077E3,7.343E3,6.312178E3,4.819141E3,3.9134834E3,6.039739E3,7.334907E3],"split_indices":[3,3,3,1,3,1,3,0,0,0,0,0,0,0,0],"split_type":[0,0,0,0,0,0,0,0,0,0,0,0,0,0,0],"sum_hessian":[5.583E3,1.814E3,3.769E3,1.152E3,6.62E2,3.08E3,6.89E2,5.52E2,6E2,4.46E2,2.16E2,1.463E3,1.617E3,4.7E2,2.19E2],"tree_param":{"num_deleted":"0","num_feature":"5","num_nodes":"15","size_leaf_vector":"1"}},{"base_weights":[5.641929E5,7.623762E5,4.686313E5,8.00646E5,6.946726E5,4.1403662E5,5.8959894E5,8.412807E3,7.6192456E3,7.2697344E3,6.2493467E3,5.1753154E3,3.9173496E3,5.348969E3,6.7593354E3],"categories":[],"categories_nodes":[],"categories_segments":[],"categories_sizes":[],"default_left":[0,0,0,0,0,0,0,0,0,0,0,0,0,0,0],"id":43,"left_children":[1,3,5,7,9,11,13,-1,-1,-1,-1,-1,-1,-1,-1],"loss_changes":[1.0539648E14,4.1464554E12,2.465365E13,1.17313E12,1.0391472E12,5.8006553E12,5.16396E12,0E0,0E0,0E0,0E0,0E0,0E0,0E0,0E0],"parents":[2147483647,0,0,1,1,2,2,3,3,4,4,5,5,6,6],"right_children":[2,4,6,8,10,12,14,-1,-1,-1,-1,-1,-1,-1,-1],"split_conditions":[8E0,5E0,1.9E1,1.1E1,7E0,1E1,2.2E1,8.412807E3,7.6192456E3,7.2697344E3,6.2493467E3,5.1753154E3,3.9173496E3,5.348969E3,6.7593354E3],"split_indices":[3,3,3,1,3,3,3,0,0,0,0,0,0,0,0],"split_type":[0,0,0,0,0,0,0,0,0,0,0,0,0,0,0],"sum_hessian":[5.583E3,1.814E3,3.769E3,1.152E3,6.62E2,2.6E3,1.169E3,5.52E2,6E2,4.46E2,2.16E2,4.57E2,2.143E3,7.2E2,4.49E2],"tree_param":{"num_deleted":"0","num_feature":"5","num_nodes":"15","size_leaf_vector":"1"}},{"base_weights":[5.5856E5,7.5476875E5,4.639506E5,7.926535E5,6.877463E5,4.0989975E5,5.837133E5,8.328832E3,7.543179E3,7.387822E3,6.4300493E3,5.1236753E3,3.8781943E3,5.2955537E3,6.6918916E3],"categories":[],"categories_nodes":[],"categories_segments":[],"categories_sizes":[],"default_left":[0,0,0,0,0,0,0,0,0,0,0,0,0,0,0],"id":44,"left_children":[1,3,5,7,9,11,13,-1,-1,-1,-1,-1,-1,-1,-1],"loss_changes":[1.03306446E14,4.0633746E12,2.416503E13,1.1499104E12,1.0388452E12,5.6861005E12,5.0617867E12,0E0,0E0,0E0,0E0,0E0,0E0,0E0,0E0],"parents":[2147483647,0,0,1,1,2,2,3,3,4,4,5,5,6,6],"right_children":[2,4,6,8,10,12,14,-1,-1,-1,-1,-1,-1,-1,-1],"split_conditions":[8E0,5E0,1.9E1,1.1E1,1.1E1,1E1,2.2E1,8.328832E3,7.543179E3,7.387822E3,6.4300493E3,5.1236753E3,3.8781943E3,5.2955537E3,6.6918916E3],"split_indices":[3,3,3,1,1,3,3,0,0,0,0,0,0,0,0],"split_type":[0,0,0,0,0,0,0,0,0,0,0,0,0,0,0],"sum_hessian":[5.583E3,1.814E3,3.769E3,1.152E3,6.62E2,2.6E3,1.169E3,5.52E2,6E2,3.02E2,3.6E2,4.57E2,2.143E3,7.2E2,4.49E2],"tree_param":{"num_deleted":"0","num_feature":"5","num_nodes":"15","size_leaf_vector":"1"}},{"base_weights":[5.5298344E5,7.472374E5,4.5931666E5,7.749462E5,6.575521E5,4.1364244E5,5.983502E5,8.1179165E3,7.40092E3,7.2314062E3,6.0175415E3,4.601456E3,3.7164387E3,5.620954E3,7.12799E3],"categories":[],"categories_nodes":[],"categories_segments":[],"categories_sizes":[],"default_left":[0,0,0,0,0,0,0,0,0,0,0,0,0,0,0],"id":45,"left_children":[1,3,5,7,9,11,13,-1,-1,-1,-1,-1,-1,-1,-1],"loss_changes":[1.0125828E14,4.0008963E12,2.3692919E13,1.1727274E12,1.1568058E12,5.377668E12,3.458187E12,0E0,0E0,0E0,0E0,0E0,0E0,0E0,0E0],"parents":[2147483647,0,0,1,1,2,2,3,3,4,4,5,5,6,6],"right_children":[2,4,6,8,10,12,14,-1,-1,-1,-1,-1,-1,-1,-1],"split_conditions":[8E0,6E0,2E1,1.1E1,1.1E1,1.1E1,2.3E1,8.1179165E3,7.40092E3,7.2314062E3,6.0175415E3,4.601456E3,3.7164387E3,5.620954E3,7.12799E3],"split_indices":[3,3,3,1,1,1,3,0,0,0,0,0,0,0,0],"split_type":[0,0,0,0,0,0,0,0,0,0,0,0,0,0,0],"sum_hessian":[5.583E3,1.814E3,3.769E3,1.38E3,4.34E2,2.84E3,9.29E2,6.6E2,7.2E2,1.94E2,2.4E2,1.343E3,1.497E3,7.1E2,2.19E2],"tree_param":{"num_deleted":"0","num_feature":"5","num_nodes":"15","size_leaf_vector":"1"}},{"base_weights":[5.4746256E5,7.397809E5,4.547291E5,7.7700294E5,6.739335E5,4.0167306E5,5.7228806E5,8.164661E3,7.393987E3,7.057138E3,6.0536323E3,5.5472734E3,3.870164E3,5.1914062E3,6.561702E3],"categories":[],"categories_nodes":[],"categories_segments":[],"categories_sizes":[],"default_left":[0,0,0,0,0,0,0,0,0,0,0,0,0,0,0],"id":46,"left_children":[1,3,5,7,9,11,13,-1,-1,-1,-1,-1,-1,-1,-1],"loss_changes":[9.925052E13,3.924862E12,2.3284427E13,1.1072963E12,1.0175717E12,5.6200654E12,4.8753583E12,0E0,0E0,0E0,0E0,0E0,0E0,0E0,0E0],"parents":[2147483647,0,0,1,1,2,2,3,3,4,4,5,5,6,6],"right_children":[2,4,6,8,10,12,14,-1,-1,-1,-1,-1,-1,-1,-1],"split_conditions":[8E0,5E0,1.9E1,1.1E1,7E0,9E0,2.2E1,8.164661E3,7.393987E3,7.057138E3,6.0536323E3,5.5472734E3,3.870164E3,5.1914062E3,6.561702E3],"split_indices":[3,3,3,1,3,3,3,0,0,0,0,0,0,0,0],"split_type":[0,0,0,0,0,0,0,0,0,0,0,0,0,0,0],"sum_hessian":[5.583E3,1.814E3,3.769E3,1.152E3,6.62E2,2.6E3,1.169E3,5.52E2,6E2,4.46E2,2.16E2,2.24E2,2.376E3,7.2E2,4.49E2],"tree_param":{"num_deleted":"0","num_feature":"5","num_nodes":"15","size_leaf_vector":"1"}},{"base_weights":[5.419969E5,7.323989E5,4.501874E5,7.5956694E5,6.4446444E5,3.9765997E5,5.665752E5,7.9571475E3,7.2537373E3,7.0941934E3,5.8923345E3,5.492047E3,3.8314788E3,5.1395645E3,6.496231E3],"categories":[],"categories_nodes":[],"categories_segments":[],"categories_sizes":[],"default_left":[0,0,0,0,0,0,0,0,0,0,0,0,0,0,0],"id":47,"left_children":[1,3,5,7,9,11,13,-1,-1,-1,-1,-1,-1,-1,-1],"loss_changes":[9.728235E13,3.846613E12,2.2822785E13,1.1297106E12,1.1425787E12,5.5098055E12,4.7788893E12,0E0,0E0,0E0,0E0,0E0,0E0,0E0,0E0],"parents":[2147483647,0,0,1,1,2,2,3,3,4,4,5,5,6,6],"right_children":[2,4,6,8,10,12,14,-1,-1,-1,-1,-1,-1,-1,-1],"split_conditions":[8E0,6E0,1.9E1,1.1E1,1.1E1,9E0,2.2E1,7.9571475E3,7.2537373E3,7.0941934E3,5.8923345E3,5.492047E3,3.8314788E3,5.1395645E3,6.496231E3],"split_indices":[3,3,3,1,1,3,3,0,0,0,0,0,0,0,0],"split_type":[0,0,0,0,0,0,0,0,0,0,0,0,0,0,0],"sum_hessian":[5.583E3,1.814E3,3.769E3,1.38E3,4.34E2,2.6E3,1.169E3,6.6E2,7.2E2,1.94E2,2.4E2,2.24E2,2.376E3,7.2E2,4.49E2],"tree_param":{"num_deleted":"0","num_feature":"5","num_nodes":"15","size_leaf_vector":"1"}},{"base_weights":[5.365857E5,7.250904E5,4.456911E5,7.616622E5,6.6039606E5,4.0895828E5,6.090652E5,8.0037344E3,7.247753E3,6.3079316E3,7.3574297E3,4.55476E3,3.6661536E3,6.655925E3,5.4538213E3],"categories":[],"categories_nodes":[],"categories_segments":[],"categories_sizes":[],"default_left":[0,0,0,0,0,0,0,0,0,0,0,0,0,0,0],"id":48,"left_children":[1,3,5,7,9,11,13,-1,-1,-1,-1,-1,-1,-1,-1],"loss_changes":[9.5353374E13,3.7912482E12,2.2375505E13,1.06635985E12,1.014686E12,5.9016206E12,2.120875E12,0E0,0E0,0E0,0E0,0E0,0E0,0E0,0E0],"parents":[2147483647,0,0,1,1,2,2,3,3,4,4,5,5,6,6],"right_children":[2,4,6,8,10,12,14,-1,-1,-1,-1,-1,-1,-1,-1],"split_conditions":[8E0,5E0,2.1E1,1.1E1,2.7E1,1.1E1,1.1E1,8.0037344E3,7.247753E3,6.3079316E3,7.3574297E3,4.55476E3,3.6661536E3,6.655925E3,5.4538213E3],"split_indices":[3,3,3,1,2,1,1,0,0,0,0,0,0,0,0],"split_type":[0,0,0,0,0,0,0,0,0,0,0,0,0,0,0],"sum_hessian":[5.583E3,1.814E3,3.769E3,1.152E3,6.62E2,3.08E3,6.89E2,5.52E2,6E2,4.82E2,1.8E2,1.463E3,1.617E3,3.6E2,3.29E2],"tree_param":{"num_deleted":"0","num_feature":"5","num_nodes":"15","size_leaf_vector":"1"}},{"base_weights":[5.312286E5,7.1785544E5,4.4123956E5,7.352501E5,5.8637156E5,3.8960434E5,5.556515E5,7.7167485E3,7.015026E3,6.7487646E3,5.105753E3,4.8980845E3,3.680171E3,5.0407197E3,6.3705854E3],"categories":[],"categories_nodes":[],"categories_segments":[],"categories_sizes":[],"default_left":[0,0,0,0,0,0,0,0,0,0,0,0,0,0,0],"id":49,"left_children":[1,3,5,7,9,11,13,-1,-1,-1,-1,-1,-1,-1,-1],"loss_changes":[9.346305E13,3.7199114E12,2.2055395E13,1.4243185E12,1.1111382E12,5.4460185E12,4.591622E12,0E0,0E0,0E0,0E0,0E0,0E0,0E0,0E0],"parents":[2147483647,0,0,1,1,2,2,3,3,4,4,5,5,6,6],"right_children":[2,4,6,8,10,12,14,-1,-1,-1,-1,-1,-1,-1,-1],"split_conditions":[8E0,7E0,1.9E1,1.1E1,1.1E1,1E1,2.2E1,7.7167485E3,7.015026E3,6.7487646E3,5.105753E3,4.8980845E3,3.680171E3,5.0407197E3,6.3705854E3],"split_indices":[3,3,3,1,1,3,3,0,0,0,0,0,0,0,0],"split_type":[0,0,0,0,0,0,0,0,0,0,0,0,0,0,0],"sum_hessian":[5.583E3,1.814E3,3.769E3,1.598E3,2.16E2,2.6E3,1.169E3,7.58E2,8.4E2,9.6E1,1.2E2,4.57E2,2.143E3,7.2E2,4.49E2],"tree_param":{"num_deleted":"0","num_feature":"5","num_nodes":"15","size_leaf_vector":"1"}},{"base_weights":[5.259247E5,7.1069156E5,4.3683247E5,7.4671394E5,6.469744E5,3.857116E5,5.5010475E5,7.846814E3,7.105363E3,6.1786704E3,7.21073E3,5.3483174E3,3.7143406E3,4.990383E3,6.3070205E3],"categories":[],"categories_nodes":[],"categories_segments":[],"categories_sizes":[],"default_left":[0,0,0,0,0,0,0,0,0,0,0,0,0,0,0],"id":50,"left_children":[1,3,5,7,9,11,13,-1,-1,-1,-1,-1,-1,-1,-1],"loss_changes":[9.160937E13,3.6828002E12,2.1618248E13,1.02616164E12,9.844535E11,5.339047E12,4.50079E12,0E0,0E0,0E0,0E0,0E0,0E0,0E0,0E0],"parents":[2147483647,0,0,1,1,2,2,3,3,4,4,5,5,6,6],"right_children":[2,4,6,8,10,12,14,-1,-1,-1,-1,-1,-1,-1,-1],"split_conditions":[8E0,5E0,1.9E1,1.1E1,2.7E1,9E0,2.2E1,7.846814E3,7.105363E3,6.1786704E3,7.21073E3,5.3483174E3,3.7143406E3,4.990383E3,6.3070205E3],"split_indices":[3,3,3,1,2,3,3,0,0,0,0,0,0,0,0],"split_type":[0,0,0,0,0,0,0,0,0,0,0,0,0,0,0],"sum_hessian":[5.583E3,1.814E3,3.769E3,1.152E3,6.62E2,2.6E3,1.169E3,5.52E2,6E2,4.82E2,1.8E2,2.24E2,2.376E3,7.2E2,4.49E2],"tree_param":{"num_deleted":"0","num_feature":"5","num_nodes":"15","size_leaf_vector":"1"}},{"base_weights":[5.206742E5,7.0360025E5,4.3246956E5,7.2991344E5,6.18446E5,3.81858E5,5.446133E5,7.645987E3,6.9710215E3,6.814574E3,5.648955E3,4.8041567E3,3.6062603E3,4.940548E3,6.2440903E3],"categories":[],"categories_nodes":[],"categories_segments":[],"categories_sizes":[],"default_left":[0,0,0,0,0,0,0,0,0,0,0,0,0,0,0],"id":51,"left_children":[1,3,5,7,9,11,13,-1,-1,-1,-1,-1,-1,-1,-1],"loss_changes":[8.979314E13,3.615423E12,2.118969E13,1.0386439E12,1.0828854E12,5.269522E12,4.411703E12,0E0,0E0,0E0,0E0,0E0,0E0,0E0,0E0],"parents":[2147483647,0,0,1,1,2,2,3,3,4,4,5,5,6,6],"right_children":[2,4,6,8,10,12,14,-1,-1,-1,-1,-1,-1,-1,-1],"split_conditions":[8E0,6E0,1.9E1,1.1E1,1.1E1,1E1,2.2E1,7.645987E3,6.9710215E3,6.814574E3,5.648955E3,4.8041567E3,3.6062603E3,4.940548E3,6.2440903E3],"split_indices":[3,3,3,1,1,3,3,0,0,0,0,0,0,0,0],"split_type":[0,0,0,0,0,0,0,0,0,0,0,0,0,0,0],"sum_hessian":[5.583E3,1.814E3,3.769E3,1.38E3,4.34E2,2.6E3,1.169E3,6.6E2,7.2E2,1.94E2,2.4E2,4.57E2,2.143E3,7.2E2,4.49E2],"tree_param":{"num_deleted":"0","num_feature":"5","num_nodes":"15","size_leaf_vector":"1"}},{"base_weights":[5.1547578E5,6.965791E5,4.2815006E5,7.1359456E5,5.679883E5,3.7804262E5,5.3917675E5,7.4889287E3,6.808894E3,6.546996E3,4.937819E3,5.2472437E3,3.6399912E3,4.891211E3,6.1817886E3],"categories":[],"categories_nodes":[],"categories_segments":[],"categories_sizes":[],"default_left":[0,0,0,0,0,0,0,0,0,0,0,0,0,0,0],"id":52,"left_children":[1,3,5,7,9,11,13,-1,-1,-1,-1,-1,-1,-1,-1],"loss_changes":[8.80126E13,3.5659637E12,2.0769724E13,1.3360704E12,1.073012E12,5.166879E12,4.324428E12,0E0,0E0,0E0,0E0,0E0,0E0,0E0,0E0],"parents":[2147483647,0,0,1,1,2,2,3,3,4,4,5,5,6,6],"right_children":[2,4,6,8,10,12,14,-1,-1,-1,-1,-1,-1,-1,-1],"split_conditions":[8E0,7E0,1.9E1,1.1E1,1.1E1,9E0,2.2E1,7.4889287E3,6.808894E3,6.546996E3,4.937819E3,5.2472437E3,3.6399912E3,4.891211E3,6.1817886E3],"split_indices":[3,3,3,1,1,3,3,0,0,0,0,0,0,0,0],"split_type":[0,0,0,0,0,0,0,0,0,0,0,0,0,0,0],"sum_hessian":[5.583E3,1.814E3,3.769E3,1.598E3,2.16E2,2.6E3,1.169E3,7.58E2,8.4E2,9.6E1,1.2E2,2.24E2,2.376E3,7.2E2,4.49E2],"tree_param":{"num_deleted":"0","num_feature":"5","num_nodes":"15","size_leaf_vector":"1"}},{"base_weights":[5.1032922E5,6.896275E5,4.2387384E5,7.24843E5,6.273454E5,3.8151888E5,5.528056E5,7.617412E3,6.896857E3,5.9892686E3,6.997143E3,4.271453E3,3.403283E3,5.1835513E3,6.616307E3],"categories":[],"categories_nodes":[],"categories_segments":[],"categories_sizes":[],"default_left":[0,0,0,0,0,0,0,0,0,0,0,0,0,0,0],"id":53,"left_children":[1,3,5,7,9,11,13,-1,-1,-1,-1,-1,-1,-1,-1],"loss_changes":[8.626683E13,3.5262353E12,2.0376667E13,9.7025996E11,9.444566E11,5.1939576E12,3.1437147E12,0E0,0E0,0E0,0E0,0E0,0E0,0E0,0E0],"parents":[2147483647,0,0,1,1,2,2,3,3,4,4,5,5,6,6],"right_children":[2,4,6,8,10,12,14,-1,-1,-1,-1,-1,-1,-1,-1],"split_conditions":[8E0,5E0,2E1,1.1E1,2.7E1,1.1E1,2.3E1,7.617412E3,6.896857E3,5.9892686E3,6.997143E3,4.271453E3,3.403283E3,5.1835513E3,6.616307E3],"split_indices":[3,3,3,1,2,1,3,0,0,0,0,0,0,0,0],"split_type":[0,0,0,0,0,0,0,0,0,0,0,0,0,0,0],"sum_hessian":[5.583E3,1.814E3,3.769E3,1.152E3,6.62E2,2.84E3,9.29E2,5.52E2,6E2,4.82E2,1.8E2,1.343E3,1.497E3,7.1E2,2.19E2],"tree_param":{"num_deleted":"0","num_feature":"5","num_nodes":"15","size_leaf_vector":"1"}},{"base_weights":[5.0523434E5,6.8274644E5,4.1964025E5,6.9950375E5,5.5612106E5,3.7045544E5,5.286233E5,7.340889E3,6.6745894E3,6.416692E3,4.8294507E3,4.674346E3,3.49566E3,4.795084E3,6.061415E3],"categories":[],"categories_nodes":[],"categories_segments":[],"categories_sizes":[],"default_left":[0,0,0,0,0,0,0,0,0,0,0,0,0,0,0],"id":54,"left_children":[1,3,5,7,9,11,13,-1,-1,-1,-1,-1,-1,-1,-1],"loss_changes":[8.455663E13,3.4623476E12,2.0012601E13,1.2821148E12,1.04853825E12,5.1058437E12,4.16387E12,0E0,0E0,0E0,0E0,0E0,0E0,0E0,0E0],"parents":[2147483647,0,0,1,1,2,2,3,3,4,4,5,5,6,6],"right_children":[2,4,6,8,10,12,14,-1,-1,-1,-1,-1,-1,-1,-1],"split_conditions":[8E0,7E0,1.9E1,1.1E1,1.1E1,1E1,2.2E1,7.340889E3,6.6745894E3,6.416692E3,4.8294507E3,4.674346E3,3.49566E3,4.795084E3,6.061415E3],"split_indices":[3,3,3,1,1,3,3,0,0,0,0,0,0,0,0],"split_type":[0,0,0,0,0,0,0,0,0,0,0,0,0,0,0],"sum_hessian":[5.583E3,1.814E3,3.769E3,1.598E3,2.16E2,2.6E3,1.169E3,7.58E2,8.4E2,9.6E1,1.2E2,4.57E2,2.143E3,7.2E2,4.49E2],"tree_param":{"num_deleted":"0","num_feature":"5","num_nodes":"15","size_leaf_vector":"1"}},{"base_weights":[5.0018994E5,6.759329E5,4.154489E5,7.1061944E5,6.1459125E5,3.810367E5,5.685048E5,6.8555425E3,7.6119663E3,5.8664824E3,6.857618E3,4.266916E3,3.3949165E3,6.2439385E3,5.056428E3],"categories":[],"categories_nodes":[],"categories_segments":[],"categories_sizes":[],"default_left":[0,0,0,0,0,0,0,0,0,0,0,0,0,0,0],"id":55,"left_children":[1,3,5,7,9,11,13,-1,-1,-1,-1,-1,-1,-1,-1],"loss_changes":[8.287958E13,3.4251022E12,1.9639946E13,9.3985964E11,9.1620377E11,5.6989854E12,2.1084766E12,0E0,0E0,0E0,0E0,0E0,0E0,0E0,0E0],"parents":[2147483647,0,0,1,1,2,2,3,3,4,4,5,5,6,6],"right_children":[2,4,6,8,10,12,14,-1,-1,-1,-1,-1,-1,-1,-1],"split_conditions":[8E0,5E0,2.1E1,2.6E1,2.7E1,1.1E1,1.1E1,6.8555425E3,7.6119663E3,5.8664824E3,6.857618E3,4.266916E3,3.3949165E3,6.2439385E3,5.056428E3],"split_indices":[3,3,3,2,2,1,1,0,0,0,0,0,0,0,0],"split_type":[0,0,0,0,0,0,0,0,0,0,0,0,0,0,0],"sum_hessian":[5.583E3,1.814E3,3.769E3,1.152E3,6.62E2,3.08E3,6.89E2,7.8E2,3.72E2,4.82E2,1.8E2,1.463E3,1.617E3,3.6E2,3.29E2],"tree_param":{"num_deleted":"0","num_feature":"5","num_nodes":"15","size_leaf_vector":"1"}},{"base_weights":[4.951963E5,6.6918856E5,4.1129947E5,6.8569175E5,5.444982E5,3.629504E5,5.1843162E5,7.1965225E3,6.542272E3,6.2889956E3,4.7233755E3,5.0733647E3,3.4913052E3,4.7028877E3,5.9441504E3],"categories":[],"categories_nodes":[],"categories_segments":[],"categories_sizes":[],"default_left":[0,0,0,0,0,0,0,0,0,0,0,0,0,0,0],"id":56,"left_children":[1,3,5,7,9,11,13,-1,-1,-1,-1,-1,-1,-1,-1],"loss_changes":[8.123662E13,3.3616172E12,1.9339432E13,1.2377559E12,1.0245762E12,5.012898E12,4.0003594E12,0E0,0E0,0E0,0E0,0E0,0E0,0E0,0E0],"parents":[2147483647,0,0,1,1,2,2,3,3,4,4,5,5,6,6],"right_children":[2,4,6,8,10,12,14,-1,-1,-1,-1,-1,-1,-1,-1],"split_conditions":[8E0,7E0,1.9E1,1.1E1,1.1E1,9E0,2.2E1,7.1965225E3,6.542272E3,6.2889956E3,4.7233755E3,5.0733647E3,3.4913052E3,4.7028877E3,5.9441504E3],"split_indices":[3,3,3,1,1,3,3,0,0,0,0,0,0,0,0],"split_type":[0,0,0,0,0,0,0,0,0,0,0,0,0,0,0],"sum_hessian":[5.583E3,1.814E3,3.769E3,1.598E3,2.16E2,2.6E3,1.169E3,7.58E2,8.4E2,9.6E1,1.2E2,2.24E2,2.376E3,7.2E2,4.49E2],"tree_param":{"num_deleted":"0","num_feature":"5","num_nodes":"15","size_leaf_vector":"1"}},{"base_weights":[4.9025222E5,6.6251025E5,4.0719156E5,6.9667594E5,6.0209475E5,3.593242E5,5.132564E5,6.7202275E3,7.464279E3,5.746195E3,6.720862E3,4.5475044E3,3.3877168E3,4.83995E3,6.3741235E3],"categories":[],"categories_nodes":[],"categories_segments":[],"categories_sizes":[],"default_left":[0,0,0,0,0,0,0,0,0,0,0,0,0,0,0],"id":57,"left_children":[1,3,5,7,9,11,13,-1,-1,-1,-1,-1,-1,-1,-1],"loss_changes":[7.962547E13,3.326922E12,1.8956107E13,9.125799E11,8.887898E11,4.947131E12,3.9420753E12,0E0,0E0,0E0,0E0,0E0,0E0,0E0,0E0],"parents":[2147483647,0,0,1,1,2,2,3,3,4,4,5,5,6,6],"right_children":[2,4,6,8,10,12,14,-1,-1,-1,-1,-1,-1,-1,-1],"split_conditions":[8E0,5E0,1.9E1,2.6E1,2.7E1,1E1,2.3E1,6.7202275E3,7.464279E3,5.746195E3,6.720862E3,4.5475044E3,3.3877168E3,4.83995E3,6.3741235E3],"split_indices":[3,3,3,2,2,3,3,0,0,0,0,0,0,0,0],"split_type":[0,0,0,0,0,0,0,0,0,0,0,0,0,0,0],"sum_hessian":[5.583E3,1.814E3,3.769E3,1.152E3,6.62E2,2.6E3,1.169E3,7.8E2,3.72E2,4.82E2,1.8E2,4.57E2,2.143E3,9.5E2,2.19E2],"tree_param":{"num_deleted":"0","num_feature":"5","num_nodes":"15","size_leaf_vector":"1"}},{"base_weights":[4.853579E5,6.558999E5,4.0312472E5,6.8085225E5,5.751755E5,3.6964997E5,5.520125E5,7.1328247E3,6.5017637E3,6.3478823E3,5.245545E3,4.148568E3,3.2851743E3,6.0731562E3,4.898414E3],"categories":[],"categories_nodes":[],"categories_segments":[],"categories_sizes":[],"default_left":[0,0,0,0,0,0,0,0,0,0,0,0,0,0,0],"id":58,"left_children":[1,3,5,7,9,11,13,-1,-1,-1,-1,-1,-1,-1,-1],"loss_changes":[7.80468E13,3.2642423E12,1.8585531E13,9.101304E11,9.797055E11,5.5927185E12,2.0749222E12,0E0,0E0,0E0,0E0,0E0,0E0,0E0,0E0],"parents":[2147483647,0,0,1,1,2,2,3,3,4,4,5,5,6,6],"right_children":[2,4,6,8,10,12,14,-1,-1,-1,-1,-1,-1,-1,-1],"split_conditions":[8E0,6E0,2.1E1,1.1E1,1.1E1,1.1E1,1.1E1,7.1328247E3,6.5017637E3,6.3478823E3,5.245545E3,4.148568E3,3.2851743E3,6.0731562E3,4.898414E3],"split_indices":[3,3,3,1,1,1,1,0,0,0,0,0,0,0,0],"split_type":[0,0,0,0,0,0,0,0,0,0,0,0,0,0,0],"sum_hessian":[5.583E3,1.814E3,3.769E3,1.38E3,4.34E2,3.08E3,6.89E2,6.6E2,7.2E2,1.94E2,2.4E2,1.463E3,1.617E3,3.6E2,3.29E2],"tree_param":{"num_deleted":"0","num_feature":"5","num_nodes":"15","size_leaf_vector":"1"}},{"base_weights":[4.8051212E5,6.654984E5,4.061836E5,6.984774E5,6.349436E5,3.766931E5,5.465083E5,7.426929E3,6.1325024E3,6.786206E3,6.1510454E3,5.116188E3,3.557344E3,6.012593E3,4.8495786E3],"categories":[],"categories_nodes":[],"categories_segments":[],"categories_sizes":[],"default_left":[0,0,0,0,0,0,0,0,0,0,0,0,0,0,0],"id":59,"left_children":[1,3,5,7,9,11,13,-1,-1,-1,-1,-1,-1,-1,-1],"loss_changes":[7.6508266E13,1.1677613E12,1.6289133E13,2.4047455E12,3.1131802E11,9.141469E12,2.0336838E12,0E0,0E0,0E0,0E0,0E0,0E0,0E0,0E0],"parents":[2147483647,0,0,1,1,2,2,3,3,4,4,5,5,6,6],"right_children":[2,4,6,8,10,12,14,-1,-1,-1,-1,-1,-1,-1,-1],"split_conditions":[7E0,1.1E1,2.1E1,2.9E1,6E0,9E0,1.1E1,7.426929E3,6.1325024E3,6.786206E3,6.1510454E3,5.116188E3,3.557344E3,6.012593E3,4.8495786E3],"split_indices":[3,1,3,2,2,3,1,0,0,0,0,0,0,0,0],"split_type":[0,0,0,0,0,0,0,0,0,0,0,0,0,0,0],"sum_hessian":[5.583E3,1.598E3,3.985E3,7.58E2,8.4E2,3.296E3,6.89E2,4.94E2,2.64E2,2.52E2,5.88E2,4.4E2,2.856E3,3.6E2,3.29E2],"tree_param":{"num_deleted":"0","num_feature":"5","num_nodes":"15","size_leaf_vector":"1"}},{"base_weights":[4.7571525E5,6.428975E5,3.951021E5,6.762831E5,5.838681E5,3.4835388E5,4.9868934E5,6.520886E3,7.2512925E3,5.5685605E3,6.527244E3,4.422515E3,3.2813303E3,4.70081E3,6.200884E3],"categories":[],"categories_nodes":[],"categories_segments":[],"categories_sizes":[],"default_left":[0,0,0,0,0,0,0,0,0,0,0,0,0,0,0],"id":60,"left_children":[1,3,5,7,9,11,13,-1,-1,-1,-1,-1,-1,-1,-1],"loss_changes":[7.500221E13,3.1819668E12,1.808255E13,8.897629E11,8.6968055E11,4.793385E12,3.7719208E12,0E0,0E0,0E0,0E0,0E0,0E0,0E0,0E0],"parents":[2147483647,0,0,1,1,2,2,3,3,4,4,5,5,6,6],"right_children":[2,4,6,8,10,12,14,-1,-1,-1,-1,-1,-1,-1,-1],"split_conditions":[8E0,5E0,1.9E1,2.6E1,2.7E1,1E1,2.3E1,6.520886E3,7.2512925E3,5.5685605E3,6.527244E3,4.422515E3,3.2813303E3,4.70081E3,6.200884E3],"split_indices":[3,3,3,2,2,3,3,0,0,0,0,0,0,0,0],"split_type":[0,0,0,0,0,0,0,0,0,0,0,0,0,0,0],"sum_hessian":[5.583E3,1.814E3,3.769E3,1.152E3,6.62E2,2.6E3,1.169E3,7.8E2,3.72E2,4.82E2,1.8E2,4.57E2,2.143E3,9.5E2,2.19E2],"tree_param":{"num_deleted":"0","num_feature":"5","num_nodes":"15","size_leaf_vector":"1"}},{"base_weights":[4.7096606E5,6.523669E5,3.9807822E5,6.8474706E5,6.223682E5,3.691163E5,5.358889E5,7.2867246E3,6.0011367E3,6.656371E3,6.0272573E3,5.0141E3,3.4856655E3,5.90077E3,4.749864E3],"categories":[],"categories_nodes":[],"categories_segments":[],"categories_sizes":[],"default_left":[0,0,0,0,0,0,0,0,0,0,0,0,0,0,0],"id":61,"left_children":[1,3,5,7,9,11,13,-1,-1,-1,-1,-1,-1,-1,-1],"loss_changes":[7.357145E13,1.1270263E12,1.5711393E13,2.3843444E12,3.1356617E11,8.788476E12,1.9968578E12,0E0,0E0,0E0,0E0,0E0,0E0,0E0,0E0],"parents":[2147483647,0,0,1,1,2,2,3,3,4,4,5,5,6,6],"right_children":[2,4,6,8,10,12,14,-1,-1,-1,-1,-1,-1,-1,-1],"split_conditions":[7E0,1.1E1,2.1E1,2.9E1,6E0,9E0,1.1E1,7.2867246E3,6.0011367E3,6.656371E3,6.0272573E3,5.0141E3,3.4856655E3,5.90077E3,4.749864E3],"split_indices":[3,1,3,2,2,3,1,0,0,0,0,0,0,0,0],"split_type":[0,0,0,0,0,0,0,0,0,0,0,0,0,0,0],"sum_hessian":[5.583E3,1.598E3,3.985E3,7.58E2,8.4E2,3.296E3,6.89E2,4.94E2,2.64E2,2.52E2,5.88E2,4.4E2,2.856E3,3.6E2,3.29E2],"tree_param":{"num_deleted":"0","num_feature":"5","num_nodes":"15","size_leaf_vector":"1"}},{"base_weights":[4.6626447E5,6.458595E5,3.9410225E5,6.2648925E5,6.965735E5,3.6542775E5,5.305454E5,6.4721206E3,5.7127725E3,8.530799E3,5.9413516E3,4.9640728E3,3.4508213E3,5.841925E3,4.7025093E3],"categories":[],"categories_nodes":[],"categories_segments":[],"categories_sizes":[],"default_left":[0,0,0,0,0,0,0,0,0,0,0,0,0,0,0],"id":62,"left_children":[1,3,5,7,9,11,13,-1,-1,-1,-1,-1,-1,-1,-1],"loss_changes":[7.211398E13,1.1343411E12,1.5401082E13,9.654952E11,6.4351025E12,8.6147313E12,1.9571797E12,0E0,0E0,0E0,0E0,0E0,0E0,0E0,0E0],"parents":[2147483647,0,0,1,1,2,2,3,3,4,4,5,5,6,6],"right_children":[2,4,6,8,10,12,14,-1,-1,-1,-1,-1,-1,-1,-1],"split_conditions":[7E0,2.7E1,2.1E1,5E0,2.9E1,9E0,1.1E1,6.4721206E3,5.7127725E3,8.530799E3,5.9413516E3,4.9640728E3,3.4508213E3,5.841925E3,4.7025093E3],"split_indices":[3,2,3,3,2,3,1,0,0,0,0,0,0,0,0],"split_type":[0,0,0,0,0,0,0,0,0,0,0,0,0,0,0],"sum_hessian":[5.583E3,1.598E3,3.985E3,1.166E3,4.32E2,3.296E3,6.89E2,8.4E2,3.26E2,1.68E2,2.64E2,4.4E2,2.856E3,3.6E2,3.29E2],"tree_param":{"num_deleted":"0","num_feature":"5","num_nodes":"15","size_leaf_vector":"1"}},{"base_weights":[4.6161E5,6.3941756E5,3.90166E5,6.202348E5,6.896411E5,3.6177603E5,5.252552E5,6.407476E3,5.6558193E3,8.445995E3,5.8821626E3,4.9145444E3,3.4163252E3,5.783668E3,4.655627E3],"categories":[],"categories_nodes":[],"categories_segments":[],"categories_sizes":[],"default_left":[0,0,0,0,0,0,0,0,0,0,0,0,0,0,0],"id":63,"left_children":[1,3,5,7,9,11,13,-1,-1,-1,-1,-1,-1,-1,-1],"loss_changes":[7.068563E13,1.1128663E12,1.5096944E13,9.4589944E11,6.3085017E12,8.4445097E12,1.9182733E12,0E0,0E0,0E0,0E0,0E0,0E0,0E0,0E0],"parents":[2147483647,0,0,1,1,2,2,3,3,4,4,5,5,6,6],"right_children":[2,4,6,8,10,12,14,-1,-1,-1,-1,-1,-1,-1,-1],"split_conditions":[7E0,2.7E1,2.1E1,5E0,2.9E1,9E0,1.1E1,6.407476E3,5.6558193E3,8.445995E3,5.8821626E3,4.9145444E3,3.4163252E3,5.783668E3,4.655627E3],"split_indices":[3,2,3,3,2,3,1,0,0,0,0,0,0,0,0],"split_type":[0,0,0,0,0,0,0,0,0,0,0,0,0,0,0],"sum_hessian":[5.583E3,1.598E3,3.985E3,1.166E3,4.32E2,3.296E3,6.89E2,8.4E2,3.26E2,1.68E2,2.64E2,4.4E2,2.856E3,3.6E2,3.29E2],"tree_param":{"num_deleted":"0","num_feature":"5","num_nodes":"15","size_leaf_vector":"1"}},{"base_weights":[4.57002E5,6.330399E5,3.8626906E5,6.140428E5,6.827778E5,3.581608E5,5.2001778E5,6.3434775E3,5.599434E3,8.362035E3,5.8235625E3,4.8655107E3,3.382174E3,5.725991E3,4.6092114E3],"categories":[],"categories_nodes":[],"categories_segments":[],"categories_sizes":[],"default_left":[0,0,0,0,0,0,0,0,0,0,0,0,0,0,0],"id":64,"left_children":[1,3,5,7,9,11,13,-1,-1,-1,-1,-1,-1,-1,-1],"loss_changes":[6.9285607E13,1.0915928E12,1.4798914E13,9.2673986E11,6.184367E12,8.2775093E12,1.8801723E12,0E0,0E0,0E0,0E0,0E0,0E0,0E0,0E0],"parents":[2147483647,0,0,1,1,2,2,3,3,4,4,5,5,6,6],"right_children":[2,4,6,8,10,12,14,-1,-1,-1,-1,-1,-1,-1,-1],"split_conditions":[7E0,2.7E1,2.1E1,5E0,2.9E1,9E0,1.1E1,6.3434775E3,5.599434E3,8.362035E3,5.8235625E3,4.8655107E3,3.382174E3,5.725991E3,4.6092114E3],"split_indices":[3,2,3,3,2,3,1,0,0,0,0,0,0,0,0],"split_type":[0,0,0,0,0,0,0,0,0,0,0,0,0,0,0],"sum_hessian":[5.583E3,1.598E3,3.985E3,1.166E3,4.32E2,3.296E3,6.89E2,8.4E2,3.26E2,1.68E2,2.64E2,4.4E2,2.856E3,3.6E2,3.29E2],"tree_param":{"num_deleted":"0","num_feature":"5","num_nodes":"15","size_leaf_vector":"1"}},{"base_weights":[4.5243997E5,6.115418E5,3.757232E5,6.4344256E5,5.5514194E5,3.3062488E5,4.7565912E5,6.199228E3,6.9096396E3,5.290788E3,6.216244E3,3.7546887E3,2.9055256E3,4.480578E3,5.9280986E3],"categories":[],"categories_nodes":[],"categories_segments":[],"categories_sizes":[],"default_left":[0,0,0,0,0,0,0,0,0,0,0,0,0,0,0],"id":65,"left_children":[1,3,5,7,9,11,13,-1,-1,-1,-1,-1,-1,-1,-1],"loss_changes":[6.7927324E13,2.908364E12,1.6833856E13,8.603692E11,8.199193E11,4.5649127E12,3.517595E12,0E0,0E0,0E0,0E0,0E0,0E0,0E0,0E0],"parents":[2147483647,0,0,1,1,2,2,3,3,4,4,5,5,6,6],"right_children":[2,4,6,8,10,12,14,-1,-1,-1,-1,-1,-1,-1,-1],"split_conditions":[8E0,5E0,1.9E1,2.6E1,2.7E1,1.1E1,2.3E1,6.199228E3,6.9096396E3,5.290788E3,6.216244E3,3.7546887E3,2.9055256E3,4.480578E3,5.9280986E3],"split_indices":[3,3,3,2,2,1,3,0,0,0,0,0,0,0,0],"split_type":[0,0,0,0,0,0,0,0,0,0,0,0,0,0,0],"sum_hessian":[5.583E3,1.814E3,3.769E3,1.152E3,6.62E2,2.6E3,1.169E3,7.8E2,3.72E2,4.82E2,1.8E2,1.223E3,1.377E3,9.5E2,2.19E2],"tree_param":{"num_deleted":"0","num_feature":"5","num_nodes":"15","size_leaf_vector":"1"}},{"base_weights":[4.4792303E5,6.2054906E5,3.7856103E5,6.517303E5,5.9167025E5,3.5095962E5,5.0989906E5,6.942435E3,5.6985947E3,6.345855E3,5.722319E3,4.773186E3,3.313323E3,5.619397E3,4.5142466E3],"categories":[],"categories_nodes":[],"categories_segments":[],"categories_sizes":[],"default_left":[0,0,0,0,0,0,0,0,0,0,0,0,0,0,0],"id":66,"left_children":[1,3,5,7,9,11,13,-1,-1,-1,-1,-1,-1,-1,-1],"loss_changes":[6.6626083E13,1.05428025E12,1.4270767E13,2.2461337E12,3.3843E11,8.018704E12,1.8460306E12,0E0,0E0,0E0,0E0,0E0,0E0,0E0,0E0],"parents":[2147483647,0,0,1,1,2,2,3,3,4,4,5,5,6,6],"right_children":[2,4,6,8,10,12,14,-1,-1,-1,-1,-1,-1,-1,-1],"split_conditions":[7E0,1.1E1,2.1E1,2.9E1,6E0,9E0,1.1E1,6.942435E3,5.6985947E3,6.345855E3,5.722319E3,4.773186E3,3.313323E3,5.619397E3,4.5142466E3],"split_indices":[3,1,3,2,2,3,1,0,0,0,0,0,0,0,0],"split_type":[0,0,0,0,0,0,0,0,0,0,0,0,0,0,0],"sum_hessian":[5.583E3,1.598E3,3.985E3,7.58E2,8.4E2,3.296E3,6.89E2,4.94E2,2.64E2,2.52E2,5.88E2,4.4E2,2.856E3,3.6E2,3.29E2],"tree_param":{"num_deleted":"0","num_feature":"5","num_nodes":"15","size_leaf_vector":"1"}},{"base_weights":[4.434515E5,6.1435906E5,3.7478E5,5.95743E5,6.6311325E5,3.474525E5,5.0481475E5,6.1557207E3,5.429235E3,8.1431772E3,5.6418237E3,4.7255625E3,3.2802014E3,5.563358E3,4.4692407E3],"categories":[],"categories_nodes":[],"categories_segments":[],"categories_sizes":[],"default_left":[0,0,0,0,0,0,0,0,0,0,0,0,0,0,0],"id":67,"left_children":[1,3,5,7,9,11,13,-1,-1,-1,-1,-1,-1,-1,-1],"loss_changes":[6.5306186E13,1.0562264E12,1.398891E13,8.880516E11,6.0177357E12,7.860193E12,1.8093556E12,0E0,0E0,0E0,0E0,0E0,0E0,0E0,0E0],"parents":[2147483647,0,0,1,1,2,2,3,3,4,4,5,5,6,6],"right_children":[2,4,6,8,10,12,14,-1,-1,-1,-1,-1,-1,-1,-1],"split_conditions":[7E0,2.7E1,2.1E1,5E0,2.9E1,9E0,1.1E1,6.1557207E3,5.429235E3,8.1431772E3,5.6418237E3,4.7255625E3,3.2802014E3,5.563358E3,4.4692407E3],"split_indices":[3,2,3,3,2,3,1,0,0,0,0,0,0,0,0],"split_type":[0,0,0,0,0,0,0,0,0,0,0,0,0,0,0],"sum_hessian":[5.583E3,1.598E3,3.985E3,1.166E3,4.32E2,3.296E3,6.89E2,8.4E2,3.26E2,1.68E2,2.64E2,4.4E2,2.856E3,3.6E2,3.29E2],"tree_param":{"num_deleted":"0","num_feature":"5","num_nodes":"15","size_leaf_vector":"1"}},{"base_weights":[4.3902475E5,6.082313E5,3.7103672E5,5.897955E5,6.5651394E5,3.3838825E5,4.7795647E5,6.0942363E3,5.3751084E3,8.0622275E3,5.585618E3,4.678414E3,3.1644434E3,4.467101E3,5.767664E3],"categories":[],"categories_nodes":[],"categories_segments":[],"categories_sizes":[],"default_left":[0,0,0,0,0,0,0,0,0,0,0,0,0,0,0],"id":68,"left_children":[1,3,5,7,9,11,13,-1,-1,-1,-1,-1,-1,-1,-1],"loss_changes":[6.4012864E13,1.03609375E12,1.3752452E13,8.700664E11,5.899322E12,8.5360126E12,2.613689E12,0E0,0E0,0E0,0E0,0E0,0E0,0E0,0E0],"parents":[2147483647,0,0,1,1,2,2,3,3,4,4,5,5,6,6],"right_children":[2,4,6,8,10,12,14,-1,-1,-1,-1,-1,-1,-1,-1],"split_conditions":[7E0,2.7E1,2E1,5E0,2.9E1,9E0,2.3E1,6.0942363E3,5.3751084E3,8.0622275E3,5.585618E3,4.678414E3,3.1644434E3,4.467101E3,5.767664E3],"split_indices":[3,2,3,3,2,3,3,0,0,0,0,0,0,0,0],"split_type":[0,0,0,0,0,0,0,0,0,0,0,0,0,0,0],"sum_hessian":[5.583E3,1.598E3,3.985E3,1.166E3,4.32E2,3.056E3,9.29E2,8.4E2,3.26E2,1.68E2,2.64E2,4.4E2,2.616E3,7.1E2,2.19E2],"tree_param":{"num_deleted":"0","num_feature":"5","num_nodes":"15","size_leaf_vector":"1"}},{"base_weights":[4.3464225E5,5.8755625E5,3.6090922E5,6.18347E5,5.331228E5,3.1032325E5,4.4535788E5,5.9535723E3,6.64826E3,5.077552E3,5.978712E3,4.060254E3,2.8713945E3,4.0759226E3,5.2501865E3],"categories":[],"categories_nodes":[],"categories_segments":[],"categories_sizes":[],"default_left":[0,0,0,0,0,0,0,0,0,0,0,0,0,0,0],"id":69,"left_children":[1,3,5,7,9,11,13,-1,-1,-1,-1,-1,-1,-1,-1],"loss_changes":[6.2746452E13,2.712406E12,1.596691E13,8.3621E11,7.854086E11,5.121849E12,4.0279076E12,0E0,0E0,0E0,0E0,0E0,0E0,0E0,0E0],"parents":[2147483647,0,0,1,1,2,2,3,3,4,4,5,5,6,6],"right_children":[2,4,6,8,10,12,14,-1,-1,-1,-1,-1,-1,-1,-1],"split_conditions":[8E0,5E0,1.8E1,2.6E1,2.7E1,1E1,2.2E1,5.9535723E3,6.64826E3,5.077552E3,5.978712E3,4.060254E3,2.8713945E3,4.0759226E3,5.2501865E3],"split_indices":[3,3,3,2,2,3,3,0,0,0,0,0,0,0,0],"split_type":[0,0,0,0,0,0,0,0,0,0,0,0,0,0,0],"sum_hessian":[5.583E3,1.814E3,3.769E3,1.152E3,6.62E2,2.36E3,1.409E3,7.8E2,3.72E2,4.82E2,1.8E2,4.57E2,1.903E3,9.6E2,4.49E2],"tree_param":{"num_deleted":"0","num_feature":"5","num_nodes":"15","size_leaf_vector":"1"}},{"base_weights":[4.3030297E5,5.9622994E5,3.6363275E5,6.264488E5,5.6824856E5,3.3159606E5,4.6854944E5,6.679541E3,5.4655605E3,6.107938E3,5.490088E3,4.5850166E3,3.1008403E3,4.3779927E3,5.657987E3],"categories":[],"categories_nodes":[],"categories_segments":[],"categories_sizes":[],"default_left":[0,0,0,0,0,0,0,0,0,0,0,0,0,0,0],"id":70,"left_children":[1,3,5,7,9,11,13,-1,-1,-1,-1,-1,-1,-1,-1],"loss_changes":[6.155554E13,9.960969E11,1.3242324E13,2.151745E12,3.530933E11,8.203421E12,2.53341E12,0E0,0E0,0E0,0E0,0E0,0E0,0E0,0E0],"parents":[2147483647,0,0,1,1,2,2,3,3,4,4,5,5,6,6],"right_children":[2,4,6,8,10,12,14,-1,-1,-1,-1,-1,-1,-1,-1],"split_conditions":[7E0,1.1E1,2E1,2.9E1,6E0,9E0,2.3E1,6.679541E3,5.4655605E3,6.107938E3,5.490088E3,4.5850166E3,3.1008403E3,4.3779927E3,5.657987E3],"split_indices":[3,1,3,2,2,3,3,0,0,0,0,0,0,0,0],"split_type":[0,0,0,0,0,0,0,0,0,0,0,0,0,0,0],"sum_hessian":[5.583E3,1.598E3,3.985E3,7.58E2,8.4E2,3.056E3,9.29E2,4.94E2,2.64E2,2.52E2,5.88E2,4.4E2,2.616E3,7.1E2,2.19E2],"tree_param":{"num_deleted":"0","num_feature":"5","num_nodes":"15","size_leaf_vector":"1"}},{"base_weights":[4.2600738E5,5.902825E5,3.6000088E5,5.722168E5,6.37609E5,3.2293972E5,4.4892497E5,5.913853E3,5.2116797E3,7.851494E3,5.4111113E3,4.5392705E3,2.9850205E3,4.227188E3,5.6016636E3],"categories":[],"categories_nodes":[],"categories_segments":[],"categories_sizes":[],"default_left":[0,0,0,0,0,0,0,0,0,0,0,0,0,0,0],"id":71,"left_children":[1,3,5,7,9,11,13,-1,-1,-1,-1,-1,-1,-1,-1],"loss_changes":[6.0336036E13,1.0022709E12,1.2991404E13,8.33727E11,5.739905E12,8.881791E12,3.1739808E12,0E0,0E0,0E0,0E0,0E0,0E0,0E0,0E0],"parents":[2147483647,0,0,1,1,2,2,3,3,4,4,5,5,6,6],"right_children":[2,4,6,8,10,12,14,-1,-1,-1,-1,-1,-1,-1,-1],"split_conditions":[7E0,2.7E1,1.9E1,5E0,2.9E1,9E0,2.3E1,5.913853E3,5.2116797E3,7.851494E3,5.4111113E3,4.5392705E3,2.9850205E3,4.227188E3,5.6016636E3],"split_indices":[3,2,3,3,2,3,3,0,0,0,0,0,0,0,0],"split_type":[0,0,0,0,0,0,0,0,0,0,0,0,0,0,0],"sum_hessian":[5.583E3,1.598E3,3.985E3,1.166E3,4.32E2,2.816E3,1.169E3,8.4E2,3.26E2,1.68E2,2.64E2,4.4E2,2.376E3,9.5E2,2.19E2],"tree_param":{"num_deleted":"0","num_feature":"5","num_nodes":"15","size_leaf_vector":"1"}},{"base_weights":[4.2175475E5,5.843949E5,3.564052E5,5.665041E5,6.3126356E5,3.3029744E5,4.8063838E5,5.8547847E3,5.159722E3,7.7734434E3,5.357204E3,4.4939805E3,3.117977E3,5.315918E3,4.2344194E3],"categories":[],"categories_nodes":[],"categories_segments":[],"categories_sizes":[],"default_left":[0,0,0,0,0,0,0,0,0,0,0,0,0,0,0],"id":72,"left_children":[1,3,5,7,9,11,13,-1,-1,-1,-1,-1,-1,-1,-1],"loss_changes":[5.914096E13,9.8321197E11,1.2769642E13,8.168491E11,5.626961E12,7.124277E12,1.7858172E12,0E0,0E0,0E0,0E0,0E0,0E0,0E0,0E0],"parents":[2147483647,0,0,1,1,2,2,3,3,4,4,5,5,6,6],"right_children":[2,4,6,8,10,12,14,-1,-1,-1,-1,-1,-1,-1,-1],"split_conditions":[7E0,2.7E1,2.1E1,5E0,2.9E1,9E0,1.1E1,5.8547847E3,5.159722E3,7.7734434E3,5.357204E3,4.4939805E3,3.117977E3,5.315918E3,4.2344194E3],"split_indices":[3,2,3,3,2,3,1,0,0,0,0,0,0,0,0],"split_type":[0,0,0,0,0,0,0,0,0,0,0,0,0,0,0],"sum_hessian":[5.583E3,1.598E3,3.985E3,1.166E3,4.32E2,3.296E3,6.89E2,8.4E2,3.26E2,1.68E2,2.64E2,4.4E2,2.856E3,3.6E2,3.29E2],"tree_param":{"num_deleted":"0","num_feature":"5","num_nodes":"15","size_leaf_vector":"1"}},{"base_weights":[4.175446E5,5.7856606E5,3.5284547E5,5.608485E5,6.2498125E5,3.1638122E5,4.4033856E5,5.796306E3,5.1082827E3,7.6961694E3,5.3038345E3,4.4491426E3,2.924016E3,4.145567E3,5.4978506E3],"categories":[],"categories_nodes":[],"categories_segments":[],"categories_sizes":[],"default_left":[0,0,0,0,0,0,0,0,0,0,0,0,0,0,0],"id":73,"left_children":[1,3,5,7,9,11,13,-1,-1,-1,-1,-1,-1,-1,-1],"loss_changes":[5.796971E13,9.644215E11,1.257751E13,8.0030676E11,5.5161976E12,8.552387E12,3.073502E12,0E0,0E0,0E0,0E0,0E0,0E0,0E0,0E0],"parents":[2147483647,0,0,1,1,2,2,3,3,4,4,5,5,6,6],"right_children":[2,4,6,8,10,12,14,-1,-1,-1,-1,-1,-1,-1,-1],"split_conditions":[7E0,2.7E1,1.9E1,5E0,2.9E1,9E0,2.3E1,5.796306E3,5.1082827E3,7.6961694E3,5.3038345E3,4.4491426E3,2.924016E3,4.145567E3,5.4978506E3],"split_indices":[3,2,3,3,2,3,3,0,0,0,0,0,0,0,0],"split_type":[0,0,0,0,0,0,0,0,0,0,0,0,0,0,0],"sum_hessian":[5.583E3,1.598E3,3.985E3,1.166E3,4.32E2,2.816E3,1.169E3,8.4E2,3.26E2,1.68E2,2.64E2,4.4E2,2.376E3,9.5E2,2.19E2],"tree_param":{"num_deleted":"0","num_feature":"5","num_nodes":"15","size_leaf_vector":"1"}},{"base_weights":[4.1337647E5,5.588978E5,3.4320812E5,5.883252E5,5.0687878E5,2.945367E5,4.2446353E5,5.6596924E3,6.3355757E3,4.823952E3,5.6941294E3,3.8696768E3,2.7214805E3,3.885077E3,5.0030596E3],"categories":[],"categories_nodes":[],"categories_segments":[],"categories_sizes":[],"default_left":[0,0,0,0,0,0,0,0,0,0,0,0,0,0,0],"id":74,"left_children":[1,3,5,7,9,11,13,-1,-1,-1,-1,-1,-1,-1,-1],"loss_changes":[5.6826377E13,2.4801423E12,1.478462E13,8.0738674E11,7.404121E11,4.780567E12,3.650672E12,0E0,0E0,0E0,0E0,0E0,0E0,0E0,0E0],"parents":[2147483647,0,0,1,1,2,2,3,3,4,4,5,5,6,6],"right_children":[2,4,6,8,10,12,14,-1,-1,-1,-1,-1,-1,-1,-1],"split_conditions":[8E0,5E0,1.8E1,2.6E1,2.7E1,1E1,2.2E1,5.6596924E3,6.3355757E3,4.823952E3,5.6941294E3,3.8696768E3,2.7214805E3,3.885077E3,5.0030596E3],"split_indices":[3,3,3,2,2,3,3,0,0,0,0,0,0,0,0],"split_type":[0,0,0,0,0,0,0,0,0,0,0,0,0,0,0],"sum_hessian":[5.583E3,1.814E3,3.769E3,1.152E3,6.62E2,2.36E3,1.409E3,7.8E2,3.72E2,4.82E2,1.8E2,4.57E2,1.903E3,9.6E2,4.49E2],"tree_param":{"num_deleted":"0","num_feature":"5","num_nodes":"15","size_leaf_vector":"1"}},{"base_weights":[4.0924953E5,5.6714975E5,3.4580453E5,5.962457E5,5.402164E5,3.1003434E5,4.3163262E5,6.3641504E3,5.1896226E3,5.8240835E3,5.21176E3,4.360285E3,2.8652847E3,4.062641E3,5.393319E3],"categories":[],"categories_nodes":[],"categories_segments":[],"categories_sizes":[],"default_left":[0,0,0,0,0,0,0,0,0,0,0,0,0,0,0],"id":75,"left_children":[1,3,5,7,9,11,13,-1,-1,-1,-1,-1,-1,-1,-1],"loss_changes":[5.574418E13,9.309677E11,1.210352E13,2.025983E12,3.720851E11,8.2179334E12,2.9775196E12,0E0,0E0,0E0,0E0,0E0,0E0,0E0,0E0],"parents":[2147483647,0,0,1,1,2,2,3,3,4,4,5,5,6,6],"right_children":[2,4,6,8,10,12,14,-1,-1,-1,-1,-1,-1,-1,-1],"split_conditions":[7E0,1.1E1,1.9E1,2.9E1,6E0,9E0,2.3E1,6.3641504E3,5.1896226E3,5.8240835E3,5.21176E3,4.360285E3,2.8652847E3,4.062641E3,5.393319E3],"split_indices":[3,1,3,2,2,3,3,0,0,0,0,0,0,0,0],"split_type":[0,0,0,0,0,0,0,0,0,0,0,0,0,0,0],"sum_hessian":[5.583E3,1.598E3,3.985E3,7.58E2,8.4E2,2.816E3,1.169E3,4.94E2,2.64E2,2.52E2,5.88E2,4.4E2,2.376E3,9.5E2,2.19E2],"tree_param":{"num_deleted":"0","num_feature":"5","num_nodes":"15","size_leaf_vector":"1"}},{"base_weights":[4.0516406E5,5.614924E5,3.423507E5,5.441318E5,6.0698494E5,3.1716653E5,4.6219103E5,5.6247456E3,4.952927E3,7.4952393E3,5.137922E3,4.3167812E3,2.9937974E3,5.125957E3,4.0565073E3],"categories":[],"categories_nodes":[],"categories_segments":[],"categories_sizes":[],"default_left":[0,0,0,0,0,0,0,0,0,0,0,0,0,0,0],"id":76,"left_children":[1,3,5,7,9,11,13,-1,-1,-1,-1,-1,-1,-1,-1],"loss_changes":[5.4639836E13,9.325448E11,1.1883503E13,7.66853E11,5.3667126E12,6.586064E12,1.7584871E12,0E0,0E0,0E0,0E0,0E0,0E0,0E0,0E0],"parents":[2147483647,0,0,1,1,2,2,3,3,4,4,5,5,6,6],"right_children":[2,4,6,8,10,12,14,-1,-1,-1,-1,-1,-1,-1,-1],"split_conditions":[7E0,2.7E1,2.1E1,5E0,2.9E1,9E0,1.1E1,5.6247456E3,4.952927E3,7.4952393E3,5.137922E3,4.3167812E3,2.9937974E3,5.125957E3,4.0565073E3],"split_indices":[3,2,3,3,2,3,1,0,0,0,0,0,0,0,0],"split_type":[0,0,0,0,0,0,0,0,0,0,0,0,0,0,0],"sum_hessian":[5.583E3,1.598E3,3.985E3,1.166E3,4.32E2,3.296E3,6.89E2,8.4E2,3.26E2,1.68E2,2.64E2,4.4E2,2.856E3,3.6E2,3.29E2],"tree_param":{"num_deleted":"0","num_feature":"5","num_nodes":"15","size_leaf_vector":"1"}},{"base_weights":[4.0111953E5,5.5589194E5,3.389313E5,5.3869956E5,6.0094425E5,3.037372E5,4.2337828E5,5.568565E3,4.903549E3,7.4207305E3,5.0867363E3,4.273711E3,2.8067183E3,3.9842E3,5.293417E3],"categories":[],"categories_nodes":[],"categories_segments":[],"categories_sizes":[],"default_left":[0,0,0,0,0,0,0,0,0,0,0,0,0,0,0],"id":77,"left_children":[1,3,5,7,9,11,13,-1,-1,-1,-1,-1,-1,-1,-1],"loss_changes":[5.355764E13,9.1482803E11,1.1717946E13,7.513173E11,5.2610665E12,7.913175E12,2.883349E12,0E0,0E0,0E0,0E0,0E0,0E0,0E0,0E0],"parents":[2147483647,0,0,1,1,2,2,3,3,4,4,5,5,6,6],"right_children":[2,4,6,8,10,12,14,-1,-1,-1,-1,-1,-1,-1,-1],"split_conditions":[7E0,2.7E1,1.9E1,5E0,2.9E1,9E0,2.3E1,5.568565E3,4.903549E3,7.4207305E3,5.0867363E3,4.273711E3,2.8067183E3,3.9842E3,5.293417E3],"split_indices":[3,2,3,3,2,3,3,0,0,0,0,0,0,0,0],"split_type":[0,0,0,0,0,0,0,0,0,0,0,0,0,0,0],"sum_hessian":[5.583E3,1.598E3,3.985E3,1.166E3,4.32E2,2.816E3,1.169E3,8.4E2,3.26E2,1.68E2,2.64E2,4.4E2,2.376E3,9.5E2,2.19E2],"tree_param":{"num_deleted":"0","num_feature":"5","num_nodes":"15","size_leaf_vector":"1"}},{"base_weights":[3.9711538E5,5.5034744E5,3.355461E5,5.3332156E5,5.949637E5,2.955572E5,4.0839425E5,5.5129453E3,4.854663E3,7.346962E3,5.036061E3,3.9339902E3,2.6076675E3,3.7379165E3,4.8138247E3],"categories":[],"categories_nodes":[],"categories_segments":[],"categories_sizes":[],"default_left":[0,0,0,0,0,0,0,0,0,0,0,0,0,0,0],"id":78,"left_children":[1,3,5,7,9,11,13,-1,-1,-1,-1,-1,-1,-1,-1],"loss_changes":[5.2496915E13,8.973797E11,1.1490984E13,7.361171E11,5.1575175E12,8.669425E12,3.381129E12,0E0,0E0,0E0,0E0,0E0,0E0,0E0,0E0],"parents":[2147483647,0,0,1,1,2,2,3,3,4,4,5,5,6,6],"right_children":[2,4,6,8,10,12,14,-1,-1,-1,-1,-1,-1,-1,-1],"split_conditions":[7E0,2.7E1,1.8E1,5E0,2.9E1,1E1,2.2E1,5.5129453E3,4.854663E3,7.346962E3,5.036061E3,3.9339902E3,2.6076675E3,3.7379165E3,4.8138247E3],"split_indices":[3,2,3,3,2,3,3,0,0,0,0,0,0,0,0],"split_type":[0,0,0,0,0,0,0,0,0,0,0,0,0,0,0],"sum_hessian":[5.583E3,1.598E3,3.985E3,1.166E3,4.32E2,2.576E3,1.409E3,8.4E2,3.26E2,1.68E2,2.64E2,6.73E2,1.903E3,9.6E2,4.49E2],"tree_param":{"num_deleted":"0","num_feature":"5","num_nodes":"15","size_leaf_vector":"1"}},{"base_weights":[3.93151E5,5.316731E5,3.263577E5,5.59764E5,4.8201938E5,2.7966216E5,4.0431638E5,5.380201E3,6.0379136E3,4.5838438E3,5.424264E3,3.262165E3,2.3858452E3,3.7005764E3,4.7657935E3],"categories":[],"categories_nodes":[],"categories_segments":[],"categories_sizes":[],"default_left":[0,0,0,0,0,0,0,0,0,0,0,0,0,0,0],"id":79,"left_children":[1,3,5,7,9,11,13,-1,-1,-1,-1,-1,-1,-1,-1],"loss_changes":[5.1491625E13,2.2618036E12,1.3610953E13,7.7896614E11,6.979322E11,4.4372045E12,3.3142887E12,0E0,0E0,0E0,0E0,0E0,0E0,0E0,0E0],"parents":[2147483647,0,0,1,1,2,2,3,3,4,4,5,5,6,6],"right_children":[2,4,6,8,10,12,14,-1,-1,-1,-1,-1,-1,-1,-1],"split_conditions":[8E0,5E0,1.8E1,2.6E1,2.7E1,1.1E1,2.2E1,5.380201E3,6.0379136E3,4.5838438E3,5.424264E3,3.262165E3,2.3858452E3,3.7005764E3,4.7657935E3],"split_indices":[3,3,3,2,2,1,3,0,0,0,0,0,0,0,0],"split_type":[0,0,0,0,0,0,0,0,0,0,0,0,0,0,0],"sum_hessian":[5.583E3,1.814E3,3.769E3,1.152E3,6.62E2,2.36E3,1.409E3,7.8E2,3.72E2,4.82E2,1.8E2,1.103E3,1.257E3,9.6E2,4.49E2],"tree_param":{"num_deleted":"0","num_feature":"5","num_nodes":"15","size_leaf_vector":"1"}},{"base_weights":[3.8922588E5,5.394874E5,3.2885022E5,5.675009E5,5.1356375E5,2.9956134E5,4.247719E5,6.063776E3,4.9274062E3,5.5540264E3,4.947203E3,4.154199E3,2.7992314E3,4.7420996E3,3.7098416E3],"categories":[],"categories_nodes":[],"categories_segments":[],"categories_sizes":[],"default_left":[0,0,0,0,0,0,0,0,0,0,0,0,0,0,0],"id":80,"left_children":[1,3,5,7,9,11,13,-1,-1,-1,-1,-1,-1,-1,-1],"loss_changes":[5.0481368E13,8.697644E11,1.1071151E13,1.9072004E12,3.8825833E11,6.839165E12,2.2971029E12,0E0,0E0,0E0,0E0,0E0,0E0,0E0,0E0],"parents":[2147483647,0,0,1,1,2,2,3,3,4,4,5,5,6,6],"right_children":[2,4,6,8,10,12,14,-1,-1,-1,-1,-1,-1,-1,-1],"split_conditions":[7E0,1.1E1,2E1,2.9E1,6E0,9E0,1.1E1,6.063776E3,4.9274062E3,5.5540264E3,4.947203E3,4.154199E3,2.7992314E3,4.7420996E3,3.7098416E3],"split_indices":[3,1,3,2,2,3,1,0,0,0,0,0,0,0,0],"split_type":[0,0,0,0,0,0,0,0,0,0,0,0,0,0,0],"sum_hessian":[5.583E3,1.598E3,3.985E3,7.58E2,8.4E2,3.056E3,9.29E2,4.94E2,2.64E2,2.52E2,5.88E2,4.4E2,2.616E3,4.8E2,4.49E2],"tree_param":{"num_deleted":"0","num_feature":"5","num_nodes":"15","size_leaf_vector":"1"}},{"base_weights":[3.8534022E5,5.2113284E5,3.1986303E5,5.415449E5,4.551325E5,2.7394134E5,3.9653062E5,5.2478257E3,5.854366E3,5.0975005E3,4.0905134E3,3.622251E3,2.5256113E3,3.7518599E3,5.102802E3],"categories":[],"categories_nodes":[],"categories_segments":[],"categories_sizes":[],"default_left":[0,0,0,0,0,0,0,0,0,0,0,0,0,0,0],"id":81,"left_children":[1,3,5,7,9,11,13,-1,-1,-1,-1,-1,-1,-1,-1],"loss_changes":[4.9482452E13,2.1986877E12,1.3164444E13,7.088374E11,8.8631516E11,4.3649618E12,3.231963E12,0E0,0E0,0E0,0E0,0E0,0E0,0E0,0E0],"parents":[2147483647,0,0,1,1,2,2,3,3,4,4,5,5,6,6],"right_children":[2,4,6,8,10,12,14,-1,-1,-1,-1,-1,-1,-1,-1],"split_conditions":[8E0,6E0,1.8E1,2.7E1,1.1E1,1E1,2.3E1,5.2478257E3,5.854366E3,5.0975005E3,4.0905134E3,3.622251E3,2.5256113E3,3.7518599E3,5.102802E3],"split_indices":[3,3,3,2,1,3,3,0,0,0,0,0,0,0,0],"split_type":[0,0,0,0,0,0,0,0,0,0,0,0,0,0,0],"sum_hessian":[5.583E3,1.814E3,3.769E3,1.38E3,4.34E2,2.36E3,1.409E3,1.008E3,3.72E2,1.94E2,2.4E2,4.57E2,1.903E3,1.19E3,2.19E2],"tree_param":{"num_deleted":"0","num_feature":"5","num_nodes":"15","size_leaf_vector":"1"}},{"base_weights":[3.8149312E5,5.288164E5,3.2229812E5,5.1230494E5,5.720958E5,2.837231E5,3.925716E5,5.2973604E3,4.6590776E3,7.0982466E3,4.8210234E3,3.7846323E3,2.5003684E3,3.7143728E3,5.0520054E3],"categories":[],"categories_nodes":[],"categories_segments":[],"categories_sizes":[],"default_left":[0,0,0,0,0,0,0,0,0,0,0,0,0,0,0],"id":82,"left_children":[1,3,5,7,9,11,13,-1,-1,-1,-1,-1,-1,-1,-1],"loss_changes":[4.8526554E13,8.4956466E11,1.0693831E13,6.9699266E11,5.0246923E12,8.129719E12,3.1686457E12,0E0,0E0,0E0,0E0,0E0,0E0,0E0,0E0],"parents":[2147483647,0,0,1,1,2,2,3,3,4,4,5,5,6,6],"right_children":[2,4,6,8,10,12,14,-1,-1,-1,-1,-1,-1,-1,-1],"split_conditions":[7E0,2.7E1,1.8E1,5E0,2.9E1,1E1,2.3E1,5.2973604E3,4.6590776E3,7.0982466E3,4.8210234E3,3.7846323E3,2.5003684E3,3.7143728E3,5.0520054E3],"split_indices":[3,2,3,3,2,3,3,0,0,0,0,0,0,0,0],"split_type":[0,0,0,0,0,0,0,0,0,0,0,0,0,0,0],"sum_hessian":[5.583E3,1.598E3,3.985E3,1.166E3,4.32E2,2.576E3,1.409E3,8.4E2,3.26E2,1.68E2,2.64E2,6.73E2,1.903E3,1.19E3,2.19E2],"tree_param":{"num_deleted":"0","num_feature":"5","num_nodes":"15","size_leaf_vector":"1"}},{"base_weights":[3.776848E5,5.1083553E5,3.1348156E5,5.3798506E5,4.6285028E5,2.6845662E5,3.886521E5,5.167771E3,5.8094863E3,4.3983413E3,5.217119E3,3.1459648E3,2.277516E3,3.5539353E3,4.588139E3],"categories":[],"categories_nodes":[],"categories_segments":[],"categories_sizes":[],"default_left":[0,0,0,0,0,0,0,0,0,0,0,0,0,0,0],"id":83,"left_children":[1,3,5,7,9,11,13,-1,-1,-1,-1,-1,-1,-1,-1],"loss_changes":[4.757589E13,2.1155398E12,1.2655423E13,7.5031065E11,6.687398E11,4.3625963E12,3.127122E12,0E0,0E0,0E0,0E0,0E0,0E0,0E0,0E0],"parents":[2147483647,0,0,1,1,2,2,3,3,4,4,5,5,6,6],"right_children":[2,4,6,8,10,12,14,-1,-1,-1,-1,-1,-1,-1,-1],"split_conditions":[8E0,5E0,1.8E1,2.6E1,2.7E1,1.1E1,2.2E1,5.167771E3,5.8094863E3,4.3983413E3,5.217119E3,3.1459648E3,2.277516E3,3.5539353E3,4.588139E3],"split_indices":[3,3,3,2,2,1,3,0,0,0,0,0,0,0,0],"split_type":[0,0,0,0,0,0,0,0,0,0,0,0,0,0,0],"sum_hessian":[5.583E3,1.814E3,3.769E3,1.152E3,6.62E2,2.36E3,1.409E3,7.8E2,3.72E2,4.82E2,1.8E2,1.103E3,1.257E3,9.6E2,4.49E2],"tree_param":{"num_deleted":"0","num_feature":"5","num_nodes":"15","size_leaf_vector":"1"}},{"base_weights":[3.739141E5,5.1838122E5,3.158667E5,5.454745E5,4.9331325E5,2.923885E5,4.2759394E5,5.8388247E3,4.716729E3,5.34785E3,4.746618E3,3.3812825E3,2.51165E3,4.7693433E3,3.7232273E3],"categories":[],"categories_nodes":[],"categories_segments":[],"categories_sizes":[],"default_left":[0,0,0,0,0,0,0,0,0,0,0,0,0,0,0],"id":84,"left_children":[1,3,5,7,9,11,13,-1,-1,-1,-1,-1,-1,-1,-1],"loss_changes":[4.6663343E13,8.169162E11,1.0330873E13,1.8760451E12,3.9669727E11,6.131737E12,1.704129E12,0E0,0E0,0E0,0E0,0E0,0E0,0E0,0E0],"parents":[2147483647,0,0,1,1,2,2,3,3,4,4,5,5,6,6],"right_children":[2,4,6,8,10,12,14,-1,-1,-1,-1,-1,-1,-1,-1],"split_conditions":[7E0,1.1E1,2.1E1,2.9E1,6E0,1.1E1,1.1E1,5.8388247E3,4.716729E3,5.34785E3,4.746618E3,3.3812825E3,2.51165E3,4.7693433E3,3.7232273E3],"split_indices":[3,1,3,2,2,1,1,0,0,0,0,0,0,0,0],"split_type":[0,0,0,0,0,0,0,0,0,0,0,0,0,0,0],"sum_hessian":[5.583E3,1.598E3,3.985E3,7.58E2,8.4E2,3.296E3,6.89E2,4.94E2,2.64E2,2.52E2,5.88E2,1.559E3,1.737E3,3.6E2,3.29E2],"tree_param":{"num_deleted":"0","num_feature":"5","num_nodes":"15","size_leaf_vector":"1"}},{"base_weights":[3.7018122E5,5.0083812E5,3.0718056E5,5.274423E5,4.5381625E5,2.6285747E5,3.811803E5,5.064851E3,5.6990913E3,4.3108105E3,5.1197803E3,3.0807515E3,2.2296624E3,3.6051401E3,4.9132734E3],"categories":[],"categories_nodes":[],"categories_segments":[],"categories_sizes":[],"default_left":[0,0,0,0,0,0,0,0,0,0,0,0,0,0,0],"id":85,"left_children":[1,3,5,7,9,11,13,-1,-1,-1,-1,-1,-1,-1,-1],"loss_changes":[4.581066E13,2.031184E12,1.2265051E13,7.375264E11,6.5599753E11,4.1900426E12,3.0324986E12,0E0,0E0,0E0,0E0,0E0,0E0,0E0,0E0],"parents":[2147483647,0,0,1,1,2,2,3,3,4,4,5,5,6,6],"right_children":[2,4,6,8,10,12,14,-1,-1,-1,-1,-1,-1,-1,-1],"split_conditions":[8E0,5E0,1.8E1,2.6E1,2.7E1,1.1E1,2.3E1,5.064851E3,5.6990913E3,4.3108105E3,5.1197803E3,3.0807515E3,2.2296624E3,3.6051401E3,4.9132734E3],"split_indices":[3,3,3,2,2,1,3,0,0,0,0,0,0,0,0],"split_type":[0,0,0,0,0,0,0,0,0,0,0,0,0,0,0],"sum_hessian":[5.583E3,1.814E3,3.769E3,1.152E3,6.62E2,2.36E3,1.409E3,7.8E2,3.72E2,4.82E2,1.8E2,1.103E3,1.257E3,1.19E3,2.19E2],"tree_param":{"num_deleted":"0","num_feature":"5","num_nodes":"15","size_leaf_vector":"1"}},{"base_weights":[3.664855E5,4.9584084E5,3.0411244E5,5.2217722E5,4.4929234E5,2.6023116E5,3.7737456E5,5.0142676E3,5.642253E3,4.267792E3,5.0688657E3,3.4671719E3,2.392906E3,3.5691194E3,4.8643643E3],"categories":[],"categories_nodes":[],"categories_segments":[],"categories_sizes":[],"default_left":[0,0,0,0,0,0,0,0,0,0,0,0,0,0,0],"id":86,"left_children":[1,3,5,7,9,11,13,-1,-1,-1,-1,-1,-1,-1,-1],"loss_changes":[4.490254E13,1.9904489E12,1.2021714E13,7.23098E11,6.433391E11,4.192945E12,2.9730737E12,0E0,0E0,0E0,0E0,0E0,0E0,0E0,0E0],"parents":[2147483647,0,0,1,1,2,2,3,3,4,4,5,5,6,6],"right_children":[2,4,6,8,10,12,14,-1,-1,-1,-1,-1,-1,-1,-1],"split_conditions":[8E0,5E0,1.8E1,2.6E1,2.7E1,1E1,2.3E1,5.0142676E3,5.642253E3,4.267792E3,5.0688657E3,3.4671719E3,2.392906E3,3.5691194E3,4.8643643E3],"split_indices":[3,3,3,2,2,3,3,0,0,0,0,0,0,0,0],"split_type":[0,0,0,0,0,0,0,0,0,0,0,0,0,0,0],"sum_hessian":[5.583E3,1.814E3,3.769E3,1.152E3,6.62E2,2.36E3,1.409E3,7.8E2,3.72E2,4.82E2,1.8E2,4.57E2,1.903E3,1.19E3,2.19E2],"tree_param":{"num_deleted":"0","num_feature":"5","num_nodes":"15",